{"learner":{"attributes":{"scikit_learn":"{\"_estimator_type\": \"classifier\"}"},"feature_names":["rsi_14","stoch_k","stoch_d","roc_6","roc_12","macd_line_rel","macd_signal_rel","macd_hist_rel","price_vs_sma20","price_vs_sma50","sma20_vs_sma50","bb_position","bb_width","bb_squeeze","volatility_14","atr_ratio","vol_rel","vol_short","vol_trend","returns_1","returns_6","returns_12","high_low_ratio","candle_body_ratio","dist_high_20","dist_low_20","consecutive_dir","ema_cross_signal"],"feature_types":["float","float","float","float","float","float","float","float","float","float","float","float","float","float","float","float","float","float","float","float","float","float","float","float","float","float","float","float"],"gradient_booster":{"model":{"cats":{"enc":[],"feature_segments":[],"sorted_idx":[]},"gbtree_model_param":{"num_parallel_tree":"1","num_trees":"300"},"iteration_indptr":[0,1,2,3,4,5,6,7,8,9,10,11,12,13,14,15,16,17,18,19,20,21,22,23,24,25,26,27,28,29,30,31,32,33,34,35,36,37,38,39,40,41,42,43,44,45,46,47,48,49,50,51,52,53,54,55,56,57,58,59,60,61,62,63,64,65,66,67,68,69,70,71,72,73,74,75,76,77,78,79,80,81,82,83,84,85,86,87,88,89,90,91,92,93,94,95,96,97,98,99,100,101,102,103,104,105,106,107,108,109,110,111,112,113,114,115,116,117,118,119,120,121,122,123,124,125,126,127,128,129,130,131,132,133,134,135,136,137,138,139,140,141,142,143,144,145,146,147,148,149,150,151,152,153,154,155,156,157,158,159,160,161,162,163,164,165,166,167,168,169,170,171,172,173,174,175,176,177,178,179,180,181,182,183,184,185,186,187,188,189,190,191,192,193,194,195,196,197,198,199,200,201,202,203,204,205,206,207,208,209,210,211,212,213,214,215,216,217,218,219,220,221,222,223,224,225,226,227,228,229,230,231,232,233,234,235,236,237,238,239,240,241,242,243,244,245,246,247,248,249,250,251,252,253,254,255,256,257,258,259,260,261,262,263,264,265,266,267,268,269,270,271,272,273,274,275,276,277,278,279,280,281,282,283,284,285,286,287,288,289,290,291,292,293,294,295,296,297,298,299,300],"tree_info":[0,0,0,0,0,0,0,0,0,0,0,0,0,0,0,0,0,0,0,0,0,0,0,0,0,0,0,0,0,0,0,0,0,0,0,0,0,0,0,0,0,0,0,0,0,0,0,0,0,0,0,0,0,0,0,0,0,0,0,0,0,0,0,0,0,0,0,0,0,0,0,0,0,0,0,0,0,0,0,0,0,0,0,0,0,0,0,0,0,0,0,0,0,0,0,0,0,0,0,0,0,0,0,0,0,0,0,0,0,0,0,0,0,0,0,0,0,0,0,0,0,0,0,0,0,0,0,0,0,0,0,0,0,0,0,0,0,0,0,0,0,0,0,0,0,0,0,0,0,0,0,0,0,0,0,0,0,0,0,0,0,0,0,0,0,0,0,0,0,0,0,0,0,0,0,0,0,0,0,0,0,0,0,0,0,0,0,0,0,0,0,0,0,0,0,0,0,0,0,0,0,0,0,0,0,0,0,0,0,0,0,0,0,0,0,0,0,0,0,0,0,0,0,0,0,0,0,0,0,0,0,0,0,0,0,0,0,0,0,0,0,0,0,0,0,0,0,0,0,0,0,0,0,0,0,0,0,0,0,0,0,0,0,0,0,0,0,0,0,0,0,0,0,0,0,0,0,0,0,0,0,0,0,0,0,0,0,0,0,0,0,0,0,0,0,0,0,0,0,0],"trees":[{"base_weights":[-9.664531E-3,-6.8252707E-1,5.693629E-1,-1.0569686E0,-2.7247182E-1,4.0305555E-2,9.016985E-1,-1.3581873E0,-7.8532124E-1,-8.371516E-1,-1.1865592E-1,-4.5917147E-1,1.4707087E-1,6.9303304E-1,1.167756E0,-1.6012081E0,-1.1856943E0,-1.0159513E0,-5.726893E-1,-8.785763E-1,7.4003184E-1,-1.7650242E-1,2.8517973E-1,-8.566624E-1,-4.3814972E-2,7.633853E-2,6.2243503E-1,6.029719E-1,1.0635239E0,8.7511224E-1,1.2646946E0,-1.8201016E0,-1.4009571E0,-1.3297918E0,-9.767102E-1,-1.214202E0,-7.5335556E-1,-6.375715E-1,-5.452191E-2,-7.0296603E-1,-1.1651117E0,1.0377156E0,-3.0679315E-2,-3.504728E-1,1.28578E-2,-1.4888514E0,3.3875045E-1,-1.5745807E0,-7.522272E-1,3.7548833E-2,-6.1209613E-1,-4.697404E-2,2.5564918E-1,4.0108463E-1,9.868795E-1,3.9951566E-1,7.1803606E-1,-7.238875E-1,1.0841174E0,-1.1173027E-1,9.328655E-1,1.1647694E0,1.4313077E0,-9.183151E-2,-3.920525E-2,-7.736087E-2,-5.039223E-2,-2.8000278E-2,-7.0006736E-2,-5.930641E-2,-2.5883216E-2,-6.8376064E-2,-4.830454E-2,-8.050501E-2,-3.191811E-2,-5.592602E-2,-2.8431093E-2,-3.4816336E-2,1.2416909E-2,-4.3453094E-2,-2.3352627E-3,-4.1761752E-2,-7.23689E-2,-1.0518258E-2,6.331035E-2,-2.4806732E-2,-5.0077555E-3,-6.616136E-4,3.9933763E-2,-4.9918722E-3,-8.958333E-2,-1.7902926E-3,2.7479649E-2,-8.6744286E-2,-9.218542E-3,-6.279035E-2,-3.016598E-2,-2.5532473E-2,8.039374E-3,-7.776692E-2,-7.5960974E-3,-1.433751E-2,1.0828933E-3,-3.4568177E-3,1.8054528E-2,2.7840886E-2,-1.9947544E-3,-1.984329E-2,5.0936844E-2,1.6660707E-2,5.2353658E-2,4.1681685E-2,2.6840169E-2,-7.826087E-2,1.1146275E-2,6.705436E-2,4.7957525E-2,-6.8727545E-2,1.50051145E-2,-1.8777095E-3,4.832309E-2,5.9797246E-2,3.72433E-2,3.9339103E-2,7.374578E-2],"categories":[],"categories_nodes":[],"categories_segments":[],"categories_sizes":[],"default_left":[0,0,0,0,0,0,0,0,0,0,0,0,0,0,0,0,0,0,0,0,0,0,0,0,0,0,0,0,0,0,0,0,0,0,0,0,0,0,0,0,0,0,0,0,0,0,0,0,0,0,0,0,0,0,0,0,0,0,0,0,0,0,0,0,0,0,0,0,0,0,0,0,0,0,0,0,0,0,0,0,0,0,0,0,0,0,0,0,0,0,0,0,0,0,0,0,0,0,0,0,0,0,0,0,0,0,0,0,0,0,0,0,0,0,0,0,0,0,0,0,0,0,0,0,0],"id":0,"left_children":[1,3,5,7,9,11,13,15,17,19,21,23,25,27,29,31,33,35,37,39,41,43,45,47,49,51,53,55,57,59,61,63,65,67,69,71,73,75,77,79,81,83,-1,85,87,89,91,93,95,97,99,101,103,105,107,109,111,113,115,117,119,121,123,-1,-1,-1,-1,-1,-1,-1,-1,-1,-1,-1,-1,-1,-1,-1,-1,-1,-1,-1,-1,-1,-1,-1,-1,-1,-1,-1,-1,-1,-1,-1,-1,-1,-1,-1,-1,-1,-1,-1,-1,-1,-1,-1,-1,-1,-1,-1,-1,-1,-1,-1,-1,-1,-1,-1,-1,-1,-1,-1,-1,-1,-1],"loss_changes":[9.2592E3,1.6868442E3,2.2452969E3,4.6792676E2,4.5530682E2,2.6279114E2,4.3375732E2,1.1080615E2,1.4691345E2,7.407562E1,9.6402565E1,1.4274815E2,1.3621675E2,1.453357E2,9.5566895E1,4.5190918E1,4.5639893E1,7.349097E1,5.2629456E1,5.3336304E1,1.2521846E1,1.1914815E2,4.900411E1,3.084021E1,2.0003702E1,7.83642E1,4.12782E1,8.209497E1,3.254718E1,4.9635437E1,4.0066406E1,6.3825684E0,3.1287964E1,4.9192627E1,6.1686707E1,2.8797974E1,5.9589417E1,4.495752E1,3.488204E1,7.388446E1,3.614392E1,7.7585754E0,0E0,6.8333786E1,3.5848534E1,5.204754E0,3.9946995E1,1.0908981E1,2.7479492E1,2.5089746E1,2.2423336E1,3.4631493E1,4.961521E1,2.2894405E1,9.395798E0,5.407425E1,4.621875E1,9.062259E0,2.482428E1,2.594685E1,2.7065186E1,1.9383545E1,2.4767944E1,0E0,0E0,0E0,0E0,0E0,0E0,0E0,0E0,0E0,0E0,0E0,0E0,0E0,0E0,0E0,0E0,0E0,0E0,0E0,0E0,0E0,0E0,0E0,0E0,0E0,0E0,0E0,0E0,0E0,0E0,0E0,0E0,0E0,0E0,0E0,0E0,0E0,0E0,0E0,0E0,0E0,0E0,0E0,0E0,0E0,0E0,0E0,0E0,0E0,0E0,0E0,0E0,0E0,0E0,0E0,0E0,0E0,0E0,0E0,0E0,0E0,0E0],"parents":[2147483647,0,0,1,1,2,2,3,3,4,4,5,5,6,6,7,7,8,8,9,9,10,10,11,11,12,12,13,13,14,14,15,15,16,16,17,17,18,18,19,19,20,20,21,21,22,22,23,23,24,24,25,25,26,26,27,27,28,28,29,29,30,30,31,31,32,32,33,33,34,34,35,35,36,36,37,37,38,38,39,39,40,40,41,41,43,43,44,44,45,45,46,46,47,47,48,48,49,49,50,50,51,51,52,52,53,53,54,54,55,55,56,56,57,57,58,58,59,59,60,60,61,61,62,62],"right_children":[2,4,6,8,10,12,14,16,18,20,22,24,26,28,30,32,34,36,38,40,42,44,46,48,50,52,54,56,58,60,62,64,66,68,70,72,74,76,78,80,82,84,-1,86,88,90,92,94,96,98,100,102,104,106,108,110,112,114,116,118,120,122,124,-1,-1,-1,-1,-1,-1,-1,-1,-1,-1,-1,-1,-1,-1,-1,-1,-1,-1,-1,-1,-1,-1,-1,-1,-1,-1,-1,-1,-1,-1,-1,-1,-1,-1,-1,-1,-1,-1,-1,-1,-1,-1,-1,-1,-1,-1,-1,-1,-1,-1,-1,-1,-1,-1,-1,-1,-1,-1,-1,-1,-1,-1],"split_conditions":[8.034952E-3,1.4977001E-2,7.07403E-3,4.1303453E-3,4.1303453E-3,3.7544682E-3,1.1921465E-2,2.6624585E-3,9.160337E-3,5.7722658E-2,2.0471781E-2,1.4192348E-2,9.041945E-3,5.9092894E-2,1.6185714E-2,1.7673529E-3,-1.3061054E-6,3.6279417E-3,6.716724E-3,9.585717E-3,7.505114E-2,-1.0320899E-1,3.3805382E-3,1.0280812E0,1.8216232E0,1.239596E-2,5.335295E-2,1.2278698E-2,-1.5998043E-2,1.526764E-2,3.3306047E-2,2.704732E-3,6.466152E1,-2.0402994E-2,2.5643042E-1,3.0112794E-1,5.411122E-1,5.4478633E-1,2.246505E1,1.0487204E-2,5.290904E-4,2.734992E-4,-3.0679315E-2,6.273793E-3,1.1462222E-2,3.3301838E1,7.4604076E-1,3.7026329E-3,2.5224239E-3,1.1521607E-1,2.826526E-2,1.0235537E-2,9.160337E-3,3.226786E-2,4.5484206E-1,2.8763272E-2,1.01477E-3,2.1014457E0,8.40129E-1,1.1063403E-2,8.606655E-3,1.66703E0,6.308081E-2,-9.183151E-2,-3.920525E-2,-7.736087E-2,-5.039223E-2,-2.8000278E-2,-7.0006736E-2,-5.930641E-2,-2.5883216E-2,-6.8376064E-2,-4.830454E-2,-8.050501E-2,-3.191811E-2,-5.592602E-2,-2.8431093E-2,-3.4816336E-2,1.2416909E-2,-4.3453094E-2,-2.3352627E-3,-4.1761752E-2,-7.23689E-2,-1.0518258E-2,6.331035E-2,-2.4806732E-2,-5.0077555E-3,-6.616136E-4,3.9933763E-2,-4.9918722E-3,-8.958333E-2,-1.7902926E-3,2.7479649E-2,-8.6744286E-2,-9.218542E-3,-6.279035E-2,-3.016598E-2,-2.5532473E-2,8.039374E-3,-7.776692E-2,-7.5960974E-3,-1.433751E-2,1.0828933E-3,-3.4568177E-3,1.8054528E-2,2.7840886E-2,-1.9947544E-3,-1.984329E-2,5.0936844E-2,1.6660707E-2,5.2353658E-2,4.1681685E-2,2.6840169E-2,-7.826087E-2,1.1146275E-2,6.705436E-2,4.7957525E-2,-6.8727545E-2,1.50051145E-2,-1.8777095E-3,4.832309E-2,5.9797246E-2,3.72433E-2,3.9339103E-2,7.374578E-2],"split_indices":[22,25,14,22,22,14,14,22,25,25,10,25,6,25,22,14,8,14,14,24,25,18,14,17,4,22,25,22,6,25,22,6,1,9,18,11,16,16,1,10,6,7,0,14,5,1,17,14,14,4,25,25,25,10,16,10,19,4,3,22,22,16,12,0,0,0,0,0,0,0,0,0,0,0,0,0,0,0,0,0,0,0,0,0,0,0,0,0,0,0,0,0,0,0,0,0,0,0,0,0,0,0,0,0,0,0,0,0,0,0,0,0,0,0,0,0,0,0,0,0,0,0,0,0,0],"split_type":[0,0,0,0,0,0,0,0,0,0,0,0,0,0,0,0,0,0,0,0,0,0,0,0,0,0,0,0,0,0,0,0,0,0,0,0,0,0,0,0,0,0,0,0,0,0,0,0,0,0,0,0,0,0,0,0,0,0,0,0,0,0,0,0,0,0,0,0,0,0,0,0,0,0,0,0,0,0,0,0,0,0,0,0,0,0,0,0,0,0,0,0,0,0,0,0,0,0,0,0,0,0,0,0,0,0,0,0,0,0,0,0,0,0,0,0,0,0,0,0,0,0,0,0,0],"sum_hessian":[2.3763414E4,1.0991434E4,1.277198E4,5.7437437E3,5.24769E3,4.928595E3,7.8433857E3,2.7208552E3,3.0228882E3,1.121781E3,4.1259087E3,8.665686E2,4.0620264E3,4.398882E3,3.444504E3,1.1248722E3,1.5959832E3,1.4471334E3,1.5757548E3,1.093812E3,2.7968987E1,3.6105283E3,5.153807E2,4.4164944E2,4.249192E2,3.5378242E3,5.242021E2,3.541878E3,8.570038E2,8.608638E2,2.5836401E3,5.323628E2,5.925094E2,9.400498E2,6.559333E2,8.214436E2,6.256899E2,1.3993412E3,1.7641354E2,6.813985E2,4.1241354E2,2.3421053E1,4.5479326E0,1.8826636E3,1.7278647E3,1.4047933E1,5.0133273E2,5.369173E1,3.879577E2,3.7174814E2,5.3171055E1,2.0950208E3,1.4428036E3,3.2828574E2,1.9591637E2,1.282674E3,2.259204E3,9.095865E0,8.479079E2,4.706485E1,8.137989E2,1.6219052E3,9.61735E2,5.227669E2,9.595865E0,4.287735E2,1.637359E2,8.005451E1,8.599953E2,4.4860526E2,2.0732802E2,5.036739E2,3.1776974E2,7.198966E1,5.537002E2,1.7264005E2,1.2267012E3,5.6671055E1,1.19742485E2,5.42906E2,1.3849248E2,1.928111E2,2.1960245E2,3.2979324E0,2.0123121E1,1.1882388E3,6.944248E2,1.6726768E3,5.5187973E1,3.0479324E0,1.1E1,1.800094E2,3.213233E2,4.7595863E1,6.095865E0,8.607519E1,3.0188254E2,6.691071E1,3.048374E2,1.6297932E1,3.687312E1,4.671316E2,1.6278892E3,3.5252914E2,1.0902744E3,2.4325189E2,8.503384E1,3.7979324E0,1.9211842E2,1.1656166E3,1.17057335E2,1.3754972E3,8.837068E2,4.75E0,4.345865E0,2.729361E2,5.749718E2,1.1297933E1,3.576692E1,2.6729324E1,7.870696E2,1.5069812E3,1.14923874E2,6.28797E1,8.988553E2],"tree_param":{"num_deleted":"0","num_feature":"28","num_nodes":"125","size_leaf_vector":"1"}},{"base_weights":[-5.0853286E-4,-5.996189E-1,7.2630054E-1,-1.1586937E0,-3.5719863E-1,4.0451106E-1,1.0566267E0,-1.3559387E0,-7.671413E-1,-6.605666E-1,-1.771004E-1,1.3962533E-1,5.643743E-1,8.7083024E-1,1.2629641E0,-1.5734348E0,-1.1994938E0,-1.3750123E0,-5.9256953E-1,-9.66749E-1,-4.5232224E-1,-3.7758437E-1,2.551113E-2,-1.3386969E-2,3.9557776E-1,-4.4983557E-1,5.994281E-1,9.751611E-1,7.689064E-1,1.4577076E0,1.2156786E0,-1.5990945E0,-4.2667773E-1,-1.3360034E0,-9.0488386E-1,-2.0126519E-1,-1.4767294E0,-4.4727004E-1,-1.318721E0,-2.4233899E-1,-1.0101172E0,-2.8490406E-1,-7.914494E-1,-6.0213286E-1,-4.736973E-2,2.4103308E-1,-7.3488414E-2,-9.0967137E-1,3.3595044E-2,4.2755976E-1,-1.1793352E0,-1.7389877E-1,-1.6381655E0,5.1763856E-1,9.6948475E-1,9.863528E-1,-2.4693358E-1,-2.1629559E-1,8.0447376E-1,1.4679282E0,8.520392E-3,6.187147E-1,1.233132E0,8.7100705E-3,-8.0367565E-2,4.816498E-2,-5.9564352E-2,-9.577185E-3,-6.810133E-2,-1.8163089E-2,-5.161908E-2,4.4240814E-2,-6.7812964E-2,-8.783441E-2,-6.1505634E-2,-6.16402E-2,-1.6448062E-2,-8.195785E-2,-7.933262E-3,-4.852592E-2,1.3805254E-2,-7.1406886E-2,-4.697262E-2,3.8246717E-3,-2.4919307E-2,-3.7268933E-2,-9.418008E-2,-2.2253552E-2,-4.2882893E-2,2.5953506E-3,-2.6458984E-2,-2.3437774E-2,1.6834736E-2,2.5466923E-2,-5.9584007E-3,4.019916E-2,-5.394832E-2,-4.7803026E-2,3.4573164E-3,-5.8222506E-3,2.5504634E-2,-8.9037776E-2,4.868994E-3,1.8054476E-2,-3.0084735E-2,-4.5971703E-3,-9.335833E-2,1.48658035E-2,2.981644E-2,-5.6453645E-2,4.9960434E-2,4.5477938E-2,5.9149504E-2,-8.085417E-2,3.7827488E-2,1.76171E-2,-4.2866535E-2,-8.041882E-2,4.073934E-2,8.506316E-2,6.993874E-2,4.9240258E-2,-6.603736E-3,6.321174E-2,4.6791222E-2],"categories":[],"categories_nodes":[],"categories_segments":[],"categories_sizes":[],"default_left":[0,0,0,0,0,0,0,0,0,0,0,0,0,0,0,0,0,0,0,0,0,0,0,0,0,0,0,0,0,0,0,0,0,0,0,0,0,0,0,0,0,0,0,0,0,0,0,0,0,0,0,0,0,0,0,0,0,0,0,0,0,0,0,0,0,0,0,0,0,0,0,0,0,0,0,0,0,0,0,0,0,0,0,0,0,0,0,0,0,0,0,0,0,0,0,0,0,0,0,0,0,0,0,0,0,0,0,0,0,0,0,0,0,0,0,0,0,0,0,0,0,0,0,0,0],"id":1,"left_children":[1,3,5,7,9,11,13,15,17,19,21,23,25,27,29,31,33,35,37,39,41,43,45,47,49,51,53,55,57,59,61,63,65,67,69,71,73,75,77,79,81,83,85,87,89,91,93,95,97,99,101,103,105,107,109,111,113,115,117,119,-1,121,123,-1,-1,-1,-1,-1,-1,-1,-1,-1,-1,-1,-1,-1,-1,-1,-1,-1,-1,-1,-1,-1,-1,-1,-1,-1,-1,-1,-1,-1,-1,-1,-1,-1,-1,-1,-1,-1,-1,-1,-1,-1,-1,-1,-1,-1,-1,-1,-1,-1,-1,-1,-1,-1,-1,-1,-1,-1,-1,-1,-1,-1,-1],"loss_changes":[1.0410443E4,1.7750576E3,1.1470859E3,3.0395898E2,4.9904626E2,2.3138025E2,2.021333E2,8.632324E1,1.394118E2,2.1594617E2,2.3334715E2,8.098624E1,1.2166223E2,2.8244629E1,2.0110352E1,3.0587158E1,5.9488037E1,3.414337E1,1.0785654E2,4.2371704E1,1.1445557E2,2.1367532E2,6.100792E1,5.4823174E1,3.906687E1,3.6221825E1,9.861426E1,1.9512085E1,5.0501343E1,5.3188477E0,1.953418E1,1.6696777E1,2.8683186E1,3.0148193E1,3.283075E1,3.2941147E1,1.5082703E1,7.925142E1,6.2659332E1,3.0709423E1,3.5808594E1,1.05267296E2,3.0951904E1,6.7881165E1,5.6245605E1,6.122378E1,5.1920166E1,1.9820988E1,4.2790775E1,3.432173E1,1.2794767E1,2.1863695E1,6.299095E0,4.6279175E1,3.8175476E1,1.8562988E1,1.94362E1,1.8798544E1,3.522345E1,3.8348389E0,0E0,1.72356E1,1.6000732E1,0E0,0E0,0E0,0E0,0E0,0E0,0E0,0E0,0E0,0E0,0E0,0E0,0E0,0E0,0E0,0E0,0E0,0E0,0E0,0E0,0E0,0E0,0E0,0E0,0E0,0E0,0E0,0E0,0E0,0E0,0E0,0E0,0E0,0E0,0E0,0E0,0E0,0E0,0E0,0E0,0E0,0E0,0E0,0E0,0E0,0E0,0E0,0E0,0E0,0E0,0E0,0E0,0E0,0E0,0E0,0E0,0E0,0E0,0E0,0E0,0E0,0E0],"parents":[2147483647,0,0,1,1,2,2,3,3,4,4,5,5,6,6,7,7,8,8,9,9,10,10,11,11,12,12,13,13,14,14,15,15,16,16,17,17,18,18,19,19,20,20,21,21,22,22,23,23,24,24,25,25,26,26,27,27,28,28,29,29,30,30,31,31,32,32,33,33,34,34,35,35,36,36,37,37,38,38,39,39,40,40,41,41,42,42,43,43,44,44,45,45,46,46,47,47,48,48,49,49,50,50,51,51,52,52,53,53,54,54,55,55,56,56,57,57,58,58,59,59,61,61,62,62],"right_children":[2,4,6,8,10,12,14,16,18,20,22,24,26,28,30,32,34,36,38,40,42,44,46,48,50,52,54,56,58,60,62,64,66,68,70,72,74,76,78,80,82,84,86,88,90,92,94,96,98,100,102,104,106,108,110,112,114,116,118,120,-1,122,124,-1,-1,-1,-1,-1,-1,-1,-1,-1,-1,-1,-1,-1,-1,-1,-1,-1,-1,-1,-1,-1,-1,-1,-1,-1,-1,-1,-1,-1,-1,-1,-1,-1,-1,-1,-1,-1,-1,-1,-1,-1,-1,-1,-1,-1,-1,-1,-1,-1,-1,-1,-1,-1,-1,-1,-1,-1,-1,-1,-1,-1,-1],"split_conditions":[1.0178451E-2,5.368055E-3,1.5129637E-2,5.5368607E1,4.3206856E-1,1.1710439E-2,2.170525E-2,2.9394452E-3,3.4980108E-3,7.295585E-3,1.8110566E-2,4.667866E-3,-3.4994107E-2,-6.456086E-4,2.0978182E1,8.687982E-3,5.0537624E1,-2.2109237E-2,3.3805382E-3,-8.033941E-3,1.0240887E-2,8.105276E-3,4.8588295E-3,-6.9370836E-1,1.1742021E-2,1.1560213E-2,1.1828181E-2,1.9630859E-2,7.841954E-2,1.81662E-2,2.8908667E1,-8.033941E-3,1.3247526E-3,-2.0402994E-2,-1.9559294E-3,2.8231745E-3,2.7652362E-3,2.6624585E-3,1.2565464E-2,-2.9339124E-2,-5.547088E-1,-3.916189E-3,9.277589E-3,1.0316389E-2,1.7105376E-2,3.9826675E-5,-1.0952875E-2,3.6336426E-3,-3.0480142E0,-3.5754915E-2,6.558219E-1,9.210859E0,5.53657E-3,9.464437E-3,-7.81387E-1,1.9392315E-2,2.0168168E-2,1.8688757E1,-8.5713947E-1,4.7403765E0,8.520392E-3,-9.240011E-2,8.7824646E1,8.7100705E-3,-8.0367565E-2,4.816498E-2,-5.9564352E-2,-9.577185E-3,-6.810133E-2,-1.8163089E-2,-5.161908E-2,4.4240814E-2,-6.7812964E-2,-8.783441E-2,-6.1505634E-2,-6.16402E-2,-1.6448062E-2,-8.195785E-2,-7.933262E-3,-4.852592E-2,1.3805254E-2,-7.1406886E-2,-4.697262E-2,3.8246717E-3,-2.4919307E-2,-3.7268933E-2,-9.418008E-2,-2.2253552E-2,-4.2882893E-2,2.5953506E-3,-2.6458984E-2,-2.3437774E-2,1.6834736E-2,2.5466923E-2,-5.9584007E-3,4.019916E-2,-5.394832E-2,-4.7803026E-2,3.4573164E-3,-5.8222506E-3,2.5504634E-2,-8.9037776E-2,4.868994E-3,1.8054476E-2,-3.0084735E-2,-4.5971703E-3,-9.335833E-2,1.48658035E-2,2.981644E-2,-5.6453645E-2,4.9960434E-2,4.5477938E-2,5.9149504E-2,-8.085417E-2,3.7827488E-2,1.76171E-2,-4.2866535E-2,-8.041882E-2,4.073934E-2,8.506316E-2,6.993874E-2,4.9240258E-2,-6.603736E-3,6.321174E-2,4.6791222E-2],"split_indices":[15,15,15,0,11,15,15,22,15,15,18,5,8,19,1,10,0,13,14,5,13,15,24,18,14,14,5,14,11,5,0,5,5,9,19,15,24,22,10,9,18,10,14,24,24,5,9,22,3,13,23,1,22,22,18,15,15,1,18,1,0,9,1,0,0,0,0,0,0,0,0,0,0,0,0,0,0,0,0,0,0,0,0,0,0,0,0,0,0,0,0,0,0,0,0,0,0,0,0,0,0,0,0,0,0,0,0,0,0,0,0,0,0,0,0,0,0,0,0,0,0,0,0,0,0],"split_type":[0,0,0,0,0,0,0,0,0,0,0,0,0,0,0,0,0,0,0,0,0,0,0,0,0,0,0,0,0,0,0,0,0,0,0,0,0,0,0,0,0,0,0,0,0,0,0,0,0,0,0,0,0,0,0,0,0,0,0,0,0,0,0,0,0,0,0,0,0,0,0,0,0,0,0,0,0,0,0,0,0,0,0,0,0,0,0,0,0,0,0,0,0,0,0,0,0,0,0,0,0,0,0,0,0,0,0,0,0,0,0,0,0,0,0,0,0,0,0,0,0,0,0,0,0],"sum_hessian":[2.3906078E4,1.3104704E4,1.0801374E4,3.9618826E3,9.142821E3,5.4732793E3,5.328094E3,2.6321797E3,1.329703E3,3.4038066E3,5.7390146E3,2.0618667E3,3.4114128E3,2.8076187E3,2.5204758E3,1.0960927E3,1.536087E3,2.944984E2,1.0352046E3,1.3754436E3,2.028363E3,2.8854592E3,2.8535554E3,1.2897991E3,7.720675E2,1.1309663E2,3.2983162E3,1.3807687E3,1.42685E3,4.845355E2,2.0359403E3,1.0712911E3,2.4801558E1,1.0461252E3,4.8996173E2,2.4115545E1,2.7038287E2,8.6452234E2,1.706823E2,7.87156E1,1.296728E3,1.3601882E3,6.6817474E2,1.716136E3,1.1693231E3,8.9933014E2,1.9542253E3,6.3857536E1,1.2259415E3,7.5772626E2,1.4341263E1,9.305568E1,2.0040947E1,2.7043525E3,5.939636E2,1.3688352E3,1.1933477E1,4.9049774E1,1.3778002E3,4.8019427E2,4.341215E0,5.9683117E1,1.9762572E3,4.5911913E0,1.0666998E3,8.477178E0,1.632438E1,2.3871399E1,1.02225385E3,9.48406E1,3.9512112E2,1.2325996E1,1.1789549E1,1.2281407E2,1.4756879E2,1.1137571E2,7.531466E2,1.3307869E2,3.7603603E1,3.2774582E1,4.5941017E1,1.8370805E2,1.11302E3,5.044757E2,8.557126E2,6.4318335E2,2.4991407E1,1.0657545E3,6.5038153E2,9.694275E2,1.9989563E2,1.0572758E2,7.936026E2,1.4049907E2,1.8137263E3,5.1387854E0,5.871875E1,4.1126617E1,1.184815E3,9.896201E1,6.587642E2,9.746724E0,4.594539E0,4.0897583E1,5.21581E1,3.047699E0,1.6993248E1,7.1462573E2,1.9897268E3,7.5439153E0,5.8641974E2,9.902679E2,3.7856738E2,4.9971685E0,6.9363084E0,2.5817993E1,2.3231781E1,4.9981174E0,1.3728021E3,1.0273103E2,3.7746323E2,4.0358356E1,1.9324759E1,1.7846252E3,1.9163188E2],"tree_param":{"num_deleted":"0","num_feature":"28","num_nodes":"125","size_leaf_vector":"1"}},{"base_weights":[-5.9801005E-3,-5.9773386E-1,5.261453E-1,-9.3359375E-1,-2.3662323E-1,5.383543E-2,8.1690145E-1,-1.2142664E0,-6.758765E-1,-6.715228E-1,-8.315436E-2,-4.7887576E-1,1.3185465E-1,6.358879E-1,1.0748287E0,-1.4742059E0,-1.0890323E0,-8.5116196E-1,-4.6161464E-1,-7.453718E-1,-5.25289E-2,-1.5935047E-1,1.4461035E-1,-8.961816E-1,-8.482096E-2,6.2837675E-2,6.050534E-1,5.532169E-1,9.616117E-1,7.8820884E-1,1.1551533E0,-1.5637237E0,-1.0747558E0,-1.3914167E0,-9.992133E-1,-1.1838057E0,-7.0940876E-1,-2.001946E-1,-7.1488047E-1,-1.1898357E0,-6.2548083E-1,7.714549E-1,-3.284513E-1,-7.7358085E-1,-1.3209113E-1,3.179597E-1,-5.8541518E-2,-9.6898854E-1,4.19832E-1,-3.5460556E-1,2.2844772E-1,1.4335689E-1,-1.6836923E-1,5.0702184E-2,7.403551E-1,9.899579E-1,5.033225E-1,-1.2404559E0,9.8535347E-1,-7.4408144E-2,8.693783E-1,3.7438187E-1,1.174204E0,-8.349792E-2,-6.491928E-2,3.2550666E-2,-5.9197396E-2,-7.318067E-2,-4.4976313E-2,-5.1318806E-2,2.5999932E-2,-6.046122E-2,6.960326E-2,-4.11835E-2,-2.6434464E-2,-1.776157E-2,1.4081632E-2,-3.0894948E-2,-6.0752343E-2,-6.254788E-2,5.2145787E-2,-7.86509E-2,-2.9432327E-2,-7.952515E-3,8.070204E-2,1.9595923E-3,-6.78243E-2,-6.0706157E-2,-9.769387E-3,-8.117208E-3,4.0758975E-2,8.502125E-3,3.1264044E-2,-2.529419E-2,4.8879823E-3,-8.337169E-2,-4.348795E-2,-3.2502763E-2,4.9461987E-2,-1.2082794E-2,-8.782845E-2,-7.790087E-2,1.5162237E-2,1.6220268E-3,2.5603069E-2,-2.4130313E-2,3.2678891E-3,3.516174E-2,-2.0293148E-2,2.8618544E-2,4.9397122E-2,5.3805787E-2,1.2649625E-2,3.8165346E-2,2.0476751E-2,-8.181556E-2,-6.273962E-3,6.1537683E-2,4.45637E-2,-5.8229852E-2,2.2914251E-2,3.925505E-2,6.261892E-2,-1.3962005E-2,2.9821008E-2,6.104469E-2,4.1985307E-2],"categories":[],"categories_nodes":[],"categories_segments":[],"categories_sizes":[],"default_left":[0,0,0,0,0,0,0,0,0,0,0,0,0,0,0,0,0,0,0,0,0,0,0,0,0,0,0,0,0,0,0,0,0,0,0,0,0,0,0,0,0,0,0,0,0,0,0,0,0,0,0,0,0,0,0,0,0,0,0,0,0,0,0,0,0,0,0,0,0,0,0,0,0,0,0,0,0,0,0,0,0,0,0,0,0,0,0,0,0,0,0,0,0,0,0,0,0,0,0,0,0,0,0,0,0,0,0,0,0,0,0,0,0,0,0,0,0,0,0,0,0,0,0,0,0,0,0],"id":2,"left_children":[1,3,5,7,9,11,13,15,17,19,21,23,25,27,29,31,33,35,37,39,41,43,45,47,49,51,53,55,57,59,61,63,65,67,69,71,73,75,77,79,81,83,85,87,89,91,93,95,97,99,101,103,105,107,109,111,113,115,117,119,121,123,125,-1,-1,-1,-1,-1,-1,-1,-1,-1,-1,-1,-1,-1,-1,-1,-1,-1,-1,-1,-1,-1,-1,-1,-1,-1,-1,-1,-1,-1,-1,-1,-1,-1,-1,-1,-1,-1,-1,-1,-1,-1,-1,-1,-1,-1,-1,-1,-1,-1,-1,-1,-1,-1,-1,-1,-1,-1,-1,-1,-1,-1,-1,-1,-1],"loss_changes":[7.49783E3,1.3665713E3,1.7211538E3,4.2068945E2,3.6231665E2,1.9850002E2,3.6071875E2,8.804932E1,1.13418945E2,6.432031E1,6.978488E1,9.972002E1,1.3580927E2,1.21580444E2,7.172485E1,2.9330078E1,4.875586E1,7.714514E1,9.0431E1,6.5749146E1,3.4771095E1,4.990809E1,3.55911E1,2.8991943E1,2.67993E1,6.7796486E1,3.929886E1,7.813562E1,4.9250244E1,4.9780853E1,3.5878906E1,1.7076904E1,3.302408E1,1.2739929E1,6.112805E1,3.417456E1,2.319873E1,5.085342E1,3.2141632E1,3.7806732E1,3.2865387E1,3.0914295E1,4.4411198E1,3.142923E1,8.256401E1,2.4249416E1,3.2619537E1,1.6731598E1,1.0454726E1,2.5607813E1,1.93118E1,1.1024074E2,6.9231766E1,3.1931906E1,1.633049E1,2.264746E1,7.889252E1,3.3464203E0,1.8898499E1,3.6294373E1,1.8798096E1,9.249333E0,3.594629E1,0E0,0E0,0E0,0E0,0E0,0E0,0E0,0E0,0E0,0E0,0E0,0E0,0E0,0E0,0E0,0E0,0E0,0E0,0E0,0E0,0E0,0E0,0E0,0E0,0E0,0E0,0E0,0E0,0E0,0E0,0E0,0E0,0E0,0E0,0E0,0E0,0E0,0E0,0E0,0E0,0E0,0E0,0E0,0E0,0E0,0E0,0E0,0E0,0E0,0E0,0E0,0E0,0E0,0E0,0E0,0E0,0E0,0E0,0E0,0E0,0E0,0E0,0E0,0E0],"parents":[2147483647,0,0,1,1,2,2,3,3,4,4,5,5,6,6,7,7,8,8,9,9,10,10,11,11,12,12,13,13,14,14,15,15,16,16,17,17,18,18,19,19,20,20,21,21,22,22,23,23,24,24,25,25,26,26,27,27,28,28,29,29,30,30,31,31,32,32,33,33,34,34,35,35,36,36,37,37,38,38,39,39,40,40,41,41,42,42,43,43,44,44,45,45,46,46,47,47,48,48,49,49,50,50,51,51,52,52,53,53,54,54,55,55,56,56,57,57,58,58,59,59,60,60,61,61,62,62],"right_children":[2,4,6,8,10,12,14,16,18,20,22,24,26,28,30,32,34,36,38,40,42,44,46,48,50,52,54,56,58,60,62,64,66,68,70,72,74,76,78,80,82,84,86,88,90,92,94,96,98,100,102,104,106,108,110,112,114,116,118,120,122,124,126,-1,-1,-1,-1,-1,-1,-1,-1,-1,-1,-1,-1,-1,-1,-1,-1,-1,-1,-1,-1,-1,-1,-1,-1,-1,-1,-1,-1,-1,-1,-1,-1,-1,-1,-1,-1,-1,-1,-1,-1,-1,-1,-1,-1,-1,-1,-1,-1,-1,-1,-1,-1,-1,-1,-1,-1,-1,-1,-1,-1,-1,-1,-1,-1],"split_conditions":[8.213664E-3,1.4977001E-2,7.07403E-3,4.2067887E-3,4.4386056E-3,3.4807033E-3,1.2315155E-2,1.8305206E-3,3.8092753E-3,3.9675403E-2,7.2383825E-3,5.3016824E-1,9.041945E-3,5.9092894E-2,1.597891E-2,9.590685E-4,2.757375E-1,6.2801433E-3,-9.2813146E-4,4.229967E-1,5.1687285E-3,4.1273182E1,1.2336824E-3,2.0169035E-2,1.7299438E-3,1.1463461E-2,-2.8685808E-2,-1.3557713E-2,-1.5998043E-2,-3.4994107E-2,5.395129E-2,6.56383E1,4.4019017E-3,2.9717233E-2,3.8182445E-2,6.4107557E-3,5.2712227E1,4.5599147E-5,2.684427E-3,3.321198E-2,1.2200544E-2,5.1576227E-2,1.169385E-2,6.0951227E-1,3.7865218E-2,3.6602736E-2,4.986584E-3,1.0343601E-2,2.0514426E-3,1.2484223E0,-4.623527E-2,3.7516743E-2,1.1165995E-2,-7.044548E-2,5.645461E-2,8.700723E-2,-2.8685808E-2,9.834727E-3,7.004286E-1,1.2278698E-2,9.801558E-2,-1.0482612E0,8.4121376E1,-8.349792E-2,-6.491928E-2,3.2550666E-2,-5.9197396E-2,-7.318067E-2,-4.4976313E-2,-5.1318806E-2,2.5999932E-2,-6.046122E-2,6.960326E-2,-4.11835E-2,-2.6434464E-2,-1.776157E-2,1.4081632E-2,-3.0894948E-2,-6.0752343E-2,-6.254788E-2,5.2145787E-2,-7.86509E-2,-2.9432327E-2,-7.952515E-3,8.070204E-2,1.9595923E-3,-6.78243E-2,-6.0706157E-2,-9.769387E-3,-8.117208E-3,4.0758975E-2,8.502125E-3,3.1264044E-2,-2.529419E-2,4.8879823E-3,-8.337169E-2,-4.348795E-2,-3.2502763E-2,4.9461987E-2,-1.2082794E-2,-8.782845E-2,-7.790087E-2,1.5162237E-2,1.6220268E-3,2.5603069E-2,-2.4130313E-2,3.2678891E-3,3.516174E-2,-2.0293148E-2,2.8618544E-2,4.9397122E-2,5.3805787E-2,1.2649625E-2,3.8165346E-2,2.0476751E-2,-8.181556E-2,-6.273962E-3,6.1537683E-2,4.45637E-2,-5.8229852E-2,2.2914251E-2,3.925505E-2,6.261892E-2,-1.3962005E-2,2.9821008E-2,6.104469E-2,4.1985307E-2],"split_indices":[22,25,14,22,22,14,14,14,14,25,22,11,6,25,22,5,11,25,13,16,5,0,13,25,6,13,13,6,6,8,12,1,12,24,13,6,0,7,19,9,12,25,24,16,24,12,14,12,13,11,13,12,22,13,25,13,13,19,3,22,25,4,1,0,0,0,0,0,0,0,0,0,0,0,0,0,0,0,0,0,0,0,0,0,0,0,0,0,0,0,0,0,0,0,0,0,0,0,0,0,0,0,0,0,0,0,0,0,0,0,0,0,0,0,0,0,0,0,0,0,0,0,0,0,0,0,0],"split_type":[0,0,0,0,0,0,0,0,0,0,0,0,0,0,0,0,0,0,0,0,0,0,0,0,0,0,0,0,0,0,0,0,0,0,0,0,0,0,0,0,0,0,0,0,0,0,0,0,0,0,0,0,0,0,0,0,0,0,0,0,0,0,0,0,0,0,0,0,0,0,0,0,0,0,0,0,0,0,0,0,0,0,0,0,0,0,0,0,0,0,0,0,0,0,0,0,0,0,0,0,0,0,0,0,0,0,0,0,0,0,0,0,0,0,0,0,0,0,0,0,0,0,0,0,0,0,0],"sum_hessian":[2.380905E4,1.1273308E4,1.2535744E4,5.8393267E3,5.4339805E3,4.7776855E3,7.7580586E3,2.7924722E3,3.0468542E3,1.4156586E3,4.018322E3,6.088619E2,4.1688237E3,4.5619116E3,3.196147E3,9.031349E2,1.8893374E3,1.6729358E3,1.3739185E3,1.2638617E3,1.5179683E2,3.0128896E3,1.00543256E3,2.944718E2,3.1439008E2,3.640098E3,5.28726E2,3.6418235E3,9.2008813E2,7.033695E2,2.4927773E3,7.3438983E2,1.6874506E2,4.2808618E2,1.4612512E3,4.9663467E2,1.1763011E3,6.779282E2,6.959903E2,2.657116E2,9.981501E2,3.717464E1,1.1462219E2,1.2608626E2,2.8868032E3,5.435326E2,4.6189993E2,2.7964444E2,1.4827383E1,1.697053E2,1.4468478E2,2.7017422E3,9.3835565E2,1.0472442E2,4.240016E2,3.704341E2,3.2713894E3,9.042919E0,9.1104517E2,5.9970028E1,6.433995E2,6.0491444E1,2.432286E3,5.192979E2,2.1509187E2,9.473669E0,1.5927138E2,3.7068704E2,5.7399128E1,1.4362257E3,2.5025553E1,4.924994E2,4.135299E0,7.167844E2,4.595167E2,5.138788E2,1.6404948E2,5.856656E2,1.1032466E2,2.5927753E2,6.434088E0,3.5281384E1,9.628687E2,1.7769173E1,1.9405466E1,8.477918E1,2.984301E1,7.044644E1,5.563982E1,2.7987751E3,8.8028145E1,3.6907352E2,1.7445909E2,1.19848755E2,3.4205118E2,3.2194534E1,2.4744989E2,4.796074E0,1.003131E1,1.5846735E2,1.1237965E1,4.748803E0,1.3993597E2,2.0788203E3,6.229218E2,4.0070184E2,5.376538E2,4.3338696E1,6.1385727E1,2.5578596E2,1.6821562E2,3.3064066E2,3.9793457E1,8.63963E2,2.4074265E3,5.9975624E0,3.0453572E0,2.4765547E2,6.633897E2,1.9603224E1,4.0366806E1,5.309268E2,1.1247263E2,1.4702294E1,4.578915E1,2.1307302E3,3.0155573E2],"tree_param":{"num_deleted":"0","num_feature":"28","num_nodes":"127","size_leaf_vector":"1"}},{"base_weights":[6.8246183E-4,-5.391095E-1,6.4775336E-1,-1.0400136E0,-3.0801934E-1,4.528572E-1,1.1029007E0,-1.2603518E0,-7.5466776E-1,-5.732773E-1,-1.511312E-1,1.8582486E-1,6.021056E-1,1.1353787E0,6.911635E-1,-1.4734501E0,-1.0707555E0,-1.2925488E0,-5.760356E-1,-8.38232E-1,-3.8887224E-1,-2.957878E-1,7.493568E-2,-2.0068236E-1,2.9727656E-1,5.09553E-1,8.227406E-1,1.0381557E0,1.2367033E0,-1.3085583E-1,7.7268744E-1,-1.7029701E0,-1.3495514E0,6.2544164E-3,-1.1080217E0,-8.9235663E-1,-1.5250239E0,-4.6368214E-1,-1.1463122E0,-1.2278315E0,-7.4849755E-1,-7.5498444E-1,-1.582629E-1,-5.845318E-1,-1.479742E-1,3.1480786E-1,-8.426248E-2,-6.0512054E-1,1.7914155E-1,-8.920178E-2,3.8250852E-1,-2.5976083E-1,5.3734523E-1,6.850354E-1,9.9938256E-1,8.639455E-1,1.1188049E0,1.1274745E0,1.3533814E0,-8.6433254E-2,4.7151786E-1,8.1374E-1,-4.029242E-2,-0E0,-8.579638E-2,-7.7404305E-2,-5.6152787E-2,-7.902708E-2,1.8598288E-2,-4.9121246E-2,-6.801275E-2,-6.579416E-2,-6.5754275E-3,-5.8688726E-2,-8.210141E-2,-2.5244007E-2,3.1149385E-2,-6.5602474E-2,6.9676205E-3,-6.537856E-2,2.9487936E-2,-4.9072627E-2,-2.6883243E-2,-4.9954653E-2,-1.9530138E-2,1.1021511E-3,-1.9684225E-2,-3.3713937E-2,2.2273442E-2,-1.4461446E-2,3.0670345E-3,-1.3793317E-2,1.989134E-2,-1.7673006E-2,4.717962E-3,7.3864236E-3,-4.000663E-2,1.1310781E-2,-8.249306E-2,-1.6317967E-2,7.860597E-3,1.6514309E-2,4.5722213E-2,-8.904763E-2,-4.0615913E-3,2.7626041E-2,-2.9620862E-2,6.281998E-2,3.1160343E-2,-8.147004E-2,5.1037382E-2,4.8554204E-2,1.1080251E-2,-7.0793293E-3,5.646155E-2,5.0623637E-2,6.696263E-2,7.962092E-2,6.500607E-2,6.1556417E-2,-2.3645656E-2,-1.8700836E-2,4.269063E-2],"categories":[],"categories_nodes":[],"categories_segments":[],"categories_sizes":[],"default_left":[0,0,0,0,0,0,0,0,0,0,0,0,0,0,0,0,0,0,0,0,0,0,0,0,0,0,0,0,0,0,0,0,0,0,0,0,0,0,0,0,0,0,0,0,0,0,0,0,0,0,0,0,0,0,0,0,0,0,0,0,0,0,0,0,0,0,0,0,0,0,0,0,0,0,0,0,0,0,0,0,0,0,0,0,0,0,0,0,0,0,0,0,0,0,0,0,0,0,0,0,0,0,0,0,0,0,0,0,0,0,0,0,0,0,0,0,0,0,0,0,0,0,0],"id":3,"left_children":[1,3,5,7,9,11,13,15,17,19,21,23,25,27,29,31,33,35,37,39,41,43,45,47,49,51,53,55,57,59,61,63,65,67,69,71,73,75,77,79,81,83,85,87,89,91,93,95,97,99,101,103,105,107,109,111,113,115,117,-1,119,121,-1,-1,-1,-1,-1,-1,-1,-1,-1,-1,-1,-1,-1,-1,-1,-1,-1,-1,-1,-1,-1,-1,-1,-1,-1,-1,-1,-1,-1,-1,-1,-1,-1,-1,-1,-1,-1,-1,-1,-1,-1,-1,-1,-1,-1,-1,-1,-1,-1,-1,-1,-1,-1,-1,-1,-1,-1,-1,-1,-1,-1],"loss_changes":[8.317785E3,1.501801E3,9.595049E2,2.556626E2,3.6935547E2,3.0183264E2,4.170752E1,9.046631E1,1.7020044E2,1.6034131E2,1.8281305E2,1.1738431E2,9.82522E1,2.7189697E1,1.6572357E1,2.6988037E1,4.981006E1,3.8782104E1,8.486597E1,4.5381775E1,1.6400137E2,1.4500229E2,8.3359024E1,9.38627E1,6.9834885E1,7.364227E1,3.3363403E1,1.971753E1,1.5893555E1,2.2662811E1,1.4913254E1,7.702759E0,2.8848389E1,2.411645E1,3.508142E1,5.2763947E1,8.128906E0,5.0681213E1,4.7652588E1,3.7453186E1,5.2887085E1,6.58244E1,5.1050392E1,1.06944855E2,6.685141E1,4.2871895E1,6.3124714E1,4.3868713E1,2.670979E1,2.244924E1,4.723683E1,3.1427364E1,5.710089E1,2.6919525E1,3.6437866E1,3.322281E1,1.4441162E1,1.6085571E1,5.404541E0,0E0,1.2847827E1,1.0801193E1,0E0,0E0,0E0,0E0,0E0,0E0,0E0,0E0,0E0,0E0,0E0,0E0,0E0,0E0,0E0,0E0,0E0,0E0,0E0,0E0,0E0,0E0,0E0,0E0,0E0,0E0,0E0,0E0,0E0,0E0,0E0,0E0,0E0,0E0,0E0,0E0,0E0,0E0,0E0,0E0,0E0,0E0,0E0,0E0,0E0,0E0,0E0,0E0,0E0,0E0,0E0,0E0,0E0,0E0,0E0,0E0,0E0,0E0,0E0,0E0,0E0],"parents":[2147483647,0,0,1,1,2,2,3,3,4,4,5,5,6,6,7,7,8,8,9,9,10,10,11,11,12,12,13,13,14,14,15,15,16,16,17,17,18,18,19,19,20,20,21,21,22,22,23,23,24,24,25,25,26,26,27,27,28,28,29,29,30,30,31,31,32,32,33,33,34,34,35,35,36,36,37,37,38,38,39,39,40,40,41,41,42,42,43,43,44,44,45,45,46,46,47,47,48,48,49,49,50,50,51,51,52,52,53,53,54,54,55,55,56,56,57,57,58,58,60,60,61,61],"right_children":[2,4,6,8,10,12,14,16,18,20,22,24,26,28,30,32,34,36,38,40,42,44,46,48,50,52,54,56,58,60,62,64,66,68,70,72,74,76,78,80,82,84,86,88,90,92,94,96,98,100,102,104,106,108,110,112,114,116,118,-1,120,122,-1,-1,-1,-1,-1,-1,-1,-1,-1,-1,-1,-1,-1,-1,-1,-1,-1,-1,-1,-1,-1,-1,-1,-1,-1,-1,-1,-1,-1,-1,-1,-1,-1,-1,-1,-1,-1,-1,-1,-1,-1,-1,-1,-1,-1,-1,-1,-1,-1,-1,-1,-1,-1,-1,-1,-1,-1,-1,-1,-1,-1],"split_conditions":[1.0124768E-2,5.4452214E-3,1.9392315E-2,5.305249E1,4.3206856E-1,1.2148028E-2,8.7824646E1,4.082016E-3,3.5637403E-3,7.3382864E-3,8.150909E-3,7.169077E-1,7.496459E-3,2.5695149E-2,7.210046E-2,-3.0561148E-3,-2.0402994E-2,2.129456E-5,3.4070618E-3,6.763026E-1,-1.4642318E-3,8.232683E-1,5.0474764E-3,1.029981E-3,2.1197344E-1,-5.740609E-3,8.868515E-2,-2.7631237E-3,9.418587E-1,7.906223E1,9.2608E-1,2.594338E1,-2.6329912E-3,-3.2206044E-2,3.015202E-3,5.8376434E1,-6.7865045E-4,1.8139116E-3,4.8023626E-2,4.044824E-2,2.4931134E-1,9.133835E-3,1.1340683E-2,7.311727E1,7.9341036E-1,-3.906084E-2,8.35645E-1,-3.7472951E-3,1.1560213E-2,4.8450655E-1,5.0762963E-2,4.7839275E-1,1.2385713E-1,-1.7243084E-2,-2.4032924E-2,4.2844772E1,-5.8579783E0,2.5019674E-3,-7.349783E-2,-8.6433254E-2,3.2569726E-3,1.3491985E-2,-4.029242E-2,-0E0,-8.579638E-2,-7.7404305E-2,-5.6152787E-2,-7.902708E-2,1.8598288E-2,-4.9121246E-2,-6.801275E-2,-6.579416E-2,-6.5754275E-3,-5.8688726E-2,-8.210141E-2,-2.5244007E-2,3.1149385E-2,-6.5602474E-2,6.9676205E-3,-6.537856E-2,2.9487936E-2,-4.9072627E-2,-2.6883243E-2,-4.9954653E-2,-1.9530138E-2,1.1021511E-3,-1.9684225E-2,-3.3713937E-2,2.2273442E-2,-1.4461446E-2,3.0670345E-3,-1.3793317E-2,1.989134E-2,-1.7673006E-2,4.717962E-3,7.3864236E-3,-4.000663E-2,1.1310781E-2,-8.249306E-2,-1.6317967E-2,7.860597E-3,1.6514309E-2,4.5722213E-2,-8.904763E-2,-4.0615913E-3,2.7626041E-2,-2.9620862E-2,6.281998E-2,3.1160343E-2,-8.147004E-2,5.1037382E-2,4.8554204E-2,1.1080251E-2,-7.0793293E-3,5.646155E-2,5.0623637E-2,6.696263E-2,7.962092E-2,6.500607E-2,6.1556417E-2,-2.3645656E-2,-1.8700836E-2,4.269063E-2],"split_indices":[15,15,15,0,11,15,1,15,15,15,15,17,5,15,12,9,9,7,14,17,7,17,14,8,11,7,12,7,17,2,23,0,13,13,14,0,10,7,12,13,11,15,25,0,11,13,17,19,14,23,9,17,12,20,13,1,4,7,20,0,7,22,0,0,0,0,0,0,0,0,0,0,0,0,0,0,0,0,0,0,0,0,0,0,0,0,0,0,0,0,0,0,0,0,0,0,0,0,0,0,0,0,0,0,0,0,0,0,0,0,0,0,0,0,0,0,0,0,0,0,0,0,0],"split_type":[0,0,0,0,0,0,0,0,0,0,0,0,0,0,0,0,0,0,0,0,0,0,0,0,0,0,0,0,0,0,0,0,0,0,0,0,0,0,0,0,0,0,0,0,0,0,0,0,0,0,0,0,0,0,0,0,0,0,0,0,0,0,0,0,0,0,0,0,0,0,0,0,0,0,0,0,0,0,0,0,0,0,0,0,0,0,0,0,0,0,0,0,0,0,0,0,0,0,0,0,0,0,0,0,0,0,0,0,0,0,0,0,0,0,0,0,0,0,0,0,0,0,0],"sum_hessian":[2.3811684E4,1.2981664E4,1.083002E4,4.0965166E3,8.885146E3,7.5851274E3,3.2448918E3,2.3086526E3,1.7878643E3,3.2999421E3,5.5852046E3,2.7214885E3,4.863639E3,3.004893E3,2.3999858E2,1.0825277E3,1.2261248E3,4.4347562E2,1.3443885E3,1.3516392E3,1.948303E3,3.407014E3,2.178191E3,6.079323E2,2.1135562E3,3.430274E3,1.4333652E3,1.5417416E3,1.4631515E3,2.1046362E1,2.1895222E2,3.73621E2,7.0890674E2,4.0586147E1,1.1855386E3,1.6552438E2,2.7795123E2,1.1253641E3,2.190245E2,2.4961826E2,1.1020209E3,7.512256E2,1.1970774E3,1.1514319E3,2.2555818E3,8.6979254E2,1.3083984E3,2.947764E2,3.1315594E2,3.8082382E2,1.7327324E3,1.18682976E2,3.3115908E3,8.097865E2,6.2357874E2,4.9354578E2,1.0481958E3,7.634206E2,6.9973096E2,5.477492E0,1.556887E1,2.1418326E2,4.768959E0,3.0202591E0,3.7060077E2,3.7348578E2,3.3542093E2,6.723655E0,3.386249E1,7.960374E2,3.8950122E2,1.0544289E2,6.0081493E1,7.3277084E1,2.0467416E2,1.0852167E3,4.014737E1,1.9434016E2,2.4684343E1,2.396598E2,9.958445E0,5.206801E2,5.813408E2,4.4799094E2,3.0323465E2,6.772014E2,5.19876E2,1.0599098E3,9.152218E1,1.3479403E3,9.0764154E2,1.0615575E2,7.636368E2,5.2260706E2,7.857914E2,6.0169395E1,2.34607E2,3.0641916E2,6.7367907E0,1.949253E2,1.8589854E2,1.5801622E3,1.5257019E2,1.1228862E1,1.0745412E2,3.2686384E3,4.295254E1,7.639593E1,7.3339056E2,4.2317667E0,6.19347E2,4.218873E2,7.165847E1,8.103018E0,1.0400928E3,5.0003067E2,2.6338992E2,1.205233E2,5.7920764E2,8.75391E0,6.8149595E0,6.3110814E0,2.0787218E2],"tree_param":{"num_deleted":"0","num_feature":"28","num_nodes":"123","size_leaf_vector":"1"}},{"base_weights":[-5.2267156E-4,-4.957774E-1,5.152828E-1,-9.942057E-1,-2.674145E-1,1.3806327E-1,8.149957E-1,-1.1281073E0,-6.4241683E-1,-5.839942E-1,-2.0738645E-2,-8.289856E-2,3.4442878E-1,6.670877E-1,1.0699875E0,-1.3921548E0,-1.014378E0,-8.603275E-2,-6.0294497E-1,-9.351964E-1,-4.795463E-1,-2.0475268E-1,8.760707E-2,-3.7587243E-1,4.741868E-2,1.160712E-1,4.376406E-1,4.7034746E-1,7.5207376E-1,6.5243274E-1,1.1068408E0,-1.4706689E0,-1.0356694E0,-1.0699489E0,-5.9641623E-1,-1.4330747E0,-5.555069E-1,-1.1438853E0,-6.5250933E-1,-5.3983617E-1,-5.403499E-2,-3.3717766E-1,4.5874167E-2,2.2540664E-2,4.634701E-1,8.5258506E-2,-5.157362E-1,-1.3596045E-2,4.040866E-1,-2.7386534E-1,3.0828938E-1,5.3137225E-1,1.18074134E-1,3.6273956E-1,8.086601E-1,1.0223408E0,6.9382346E-1,-1.0563673E0,7.75121E-1,1.0287014E0,1.2405655E0,-8.3928525E-2,-6.693518E-2,-7.076282E-2,-2.9452875E-2,-6.6269785E-2,-4.8667934E-2,-3.734414E-2,1.1822653E-2,8.547978E-3,-7.977058E-2,-3.2445766E-2,-2.063094E-3,1.625092E-3,-5.932028E-2,5.0689597E-2,-3.569886E-2,-4.9594905E-2,-2.3777444E-2,5.9427368E-3,-2.7138038E-2,-5.37773E-3,-2.6225945E-2,2.4563665E-2,-2.925594E-3,-3.4228158E-3,1.3130175E-2,-3.091952E-2,2.493175E-2,-5.73711E-2,1.4363023E-2,-3.173647E-2,-5.5865743E-3,7.300302E-3,-8.003014E-3,-5.350849E-2,2.4313545E-2,3.1061856E-2,-2.7058933E-2,-1.6406385E-2,1.880512E-2,2.8875519E-2,2.1481323E-3,2.8968116E-2,-1.3724155E-3,1.9497603E-2,-5.1285487E-2,4.5432612E-2,5.720982E-3,6.495089E-2,4.0113825E-2,2.4352288E-2,3.8910013E-2,4.050918E-2,-8.739128E-2,-4.0244263E-2,4.1221034E-2,5.2313544E-2,1.580702E-2,6.90551E-2,5.487887E-2],"categories":[],"categories_nodes":[],"categories_segments":[],"categories_sizes":[],"default_left":[0,0,0,0,0,0,0,0,0,0,0,0,0,0,0,0,0,0,0,0,0,0,0,0,0,0,0,0,0,0,0,0,0,0,0,0,0,0,0,0,0,0,0,0,0,0,0,0,0,0,0,0,0,0,0,0,0,0,0,0,0,0,0,0,0,0,0,0,0,0,0,0,0,0,0,0,0,0,0,0,0,0,0,0,0,0,0,0,0,0,0,0,0,0,0,0,0,0,0,0,0,0,0,0,0,0,0,0,0,0,0,0,0,0,0,0,0,0,0,0,0],"id":4,"left_children":[1,3,5,7,9,11,13,15,17,19,21,23,25,27,29,31,33,-1,35,37,39,41,43,45,47,49,51,53,55,57,59,61,63,65,67,69,71,73,75,77,79,81,83,85,87,89,91,93,95,97,99,101,103,105,107,109,111,113,115,117,119,-1,-1,-1,-1,-1,-1,-1,-1,-1,-1,-1,-1,-1,-1,-1,-1,-1,-1,-1,-1,-1,-1,-1,-1,-1,-1,-1,-1,-1,-1,-1,-1,-1,-1,-1,-1,-1,-1,-1,-1,-1,-1,-1,-1,-1,-1,-1,-1,-1,-1,-1,-1,-1,-1,-1,-1,-1,-1,-1,-1],"loss_changes":[6.067319E3,1.3783372E3,1.3146836E3,1.7768677E2,6.487976E2,2.3511948E2,2.4288379E2,8.010474E1,4.260492E1,1.3234302E2,9.325789E1,9.5173294E1,5.641446E1,6.7691895E1,3.4970947E1,2.0322021E1,4.3363525E1,0E0,3.828006E1,4.74433E1,7.171649E1,5.7713318E1,7.1664474E1,4.9744667E1,3.766932E1,5.8236843E1,5.625824E1,4.4377533E1,4.352246E1,4.1829826E1,2.0383057E1,1.4702393E1,2.4183823E1,3.9542603E1,2.9236061E1,1.4994598E1,4.5969055E1,2.4442749E1,3.7112152E1,7.0245605E1,2.9905214E1,4.849597E1,2.8097383E1,5.4922737E1,1.6712318E1,4.4368027E1,2.790422E1,3.4393192E1,3.0850677E1,6.1494747E1,2.2626091E1,3.2581696E1,2.9249588E1,3.5828133E1,2.0075027E1,2.860669E1,4.017932E1,1.904937E1,1.500489E1,1.632788E1,1.3266846E1,0E0,0E0,0E0,0E0,0E0,0E0,0E0,0E0,0E0,0E0,0E0,0E0,0E0,0E0,0E0,0E0,0E0,0E0,0E0,0E0,0E0,0E0,0E0,0E0,0E0,0E0,0E0,0E0,0E0,0E0,0E0,0E0,0E0,0E0,0E0,0E0,0E0,0E0,0E0,0E0,0E0,0E0,0E0,0E0,0E0,0E0,0E0,0E0,0E0,0E0,0E0,0E0,0E0,0E0,0E0,0E0,0E0,0E0,0E0,0E0],"parents":[2147483647,0,0,1,1,2,2,3,3,4,4,5,5,6,6,7,7,8,8,9,9,10,10,11,11,12,12,13,13,14,14,15,15,16,16,18,18,19,19,20,20,21,21,22,22,23,23,24,24,25,25,26,26,27,27,28,28,29,29,30,30,31,31,32,32,33,33,34,34,35,35,36,36,37,37,38,38,39,39,40,40,41,41,42,42,43,43,44,44,45,45,46,46,47,47,48,48,49,49,50,50,51,51,52,52,53,53,54,54,55,55,56,56,57,57,58,58,59,59,60,60],"right_children":[2,4,6,8,10,12,14,16,18,20,22,24,26,28,30,32,34,-1,36,38,40,42,44,46,48,50,52,54,56,58,60,62,64,66,68,70,72,74,76,78,80,82,84,86,88,90,92,94,96,98,100,102,104,106,108,110,112,114,116,118,120,-1,-1,-1,-1,-1,-1,-1,-1,-1,-1,-1,-1,-1,-1,-1,-1,-1,-1,-1,-1,-1,-1,-1,-1,-1,-1,-1,-1,-1,-1,-1,-1,-1,-1,-1,-1,-1,-1,-1,-1,-1,-1,-1,-1,-1,-1,-1,-1,-1,-1,-1,-1,-1,-1,-1,-1,-1,-1,-1,-1],"split_conditions":[8.822469E-3,4.1303453E-3,5.1819682E-2,3.1576501E-3,1.5825719E-2,5.908695E-3,1.4047244E-2,1.8305206E-3,9.811937E-3,6.2801433E-3,5.918599E-3,1.1003683E-2,3.3999898E-2,1.2519903E-2,1.2906792E-2,3.0801676E-3,5.1389164E-3,-8.603275E-2,-3.5176626E-1,3.532353E-3,6.620483E-3,1.8110566E-2,2.0933323E-2,-7.019969E-3,3.642028E-2,-4.4528507E-3,9.664174E-3,6.226886E-2,-3.304018E-2,-3.4994107E-2,3.3306047E-2,6.206449E-3,2.6624585E-3,4.8839438E-1,7.177795E-1,4.966723E-4,1.2268763E-2,-6.1863293E-3,-4.9117833E-2,5.5507016E-1,-7.310858E-3,3.8738744E-4,-2.1434718E-4,7.1834153E-3,3.5060956E-3,3.4575309E-3,1.4972485E-2,2.0274524E-4,2.8001728E-2,-5.300537E-3,9.464437E-3,2.8864974E-3,-9.516195E-3,1.5258015E0,6.129697E-3,-6.9721705E-1,-2.268542E-3,-9.240011E-2,5.7258155E-2,2.7244194E0,-5.946352E-2,-8.3928525E-2,-6.693518E-2,-7.076282E-2,-2.9452875E-2,-6.6269785E-2,-4.8667934E-2,-3.734414E-2,1.1822653E-2,8.547978E-3,-7.977058E-2,-3.2445766E-2,-2.063094E-3,1.625092E-3,-5.932028E-2,5.0689597E-2,-3.569886E-2,-4.9594905E-2,-2.3777444E-2,5.9427368E-3,-2.7138038E-2,-5.37773E-3,-2.6225945E-2,2.4563665E-2,-2.925594E-3,-3.4228158E-3,1.3130175E-2,-3.091952E-2,2.493175E-2,-5.73711E-2,1.4363023E-2,-3.173647E-2,-5.5865743E-3,7.300302E-3,-8.003014E-3,-5.350849E-2,2.4313545E-2,3.1061856E-2,-2.7058933E-2,-1.6406385E-2,1.880512E-2,2.8875519E-2,2.1481323E-3,2.8968116E-2,-1.3724155E-3,1.9497603E-2,-5.1285487E-2,4.5432612E-2,5.720982E-3,6.495089E-2,4.0113825E-2,2.4352288E-2,3.8910013E-2,4.050918E-2,-8.739128E-2,-4.0244263E-2,4.1221034E-2,5.2313544E-2,1.580702E-2,6.90551E-2,5.487887E-2],"split_indices":[22,22,12,8,25,14,14,14,25,25,22,25,12,22,22,9,14,0,3,14,14,18,10,10,25,8,13,25,13,8,22,12,22,16,16,5,10,5,13,16,9,7,7,14,14,14,22,7,12,5,22,7,10,17,19,3,7,9,12,18,9,0,0,0,0,0,0,0,0,0,0,0,0,0,0,0,0,0,0,0,0,0,0,0,0,0,0,0,0,0,0,0,0,0,0,0,0,0,0,0,0,0,0,0,0,0,0,0,0,0,0,0,0,0,0,0,0,0,0,0,0],"split_type":[0,0,0,0,0,0,0,0,0,0,0,0,0,0,0,0,0,0,0,0,0,0,0,0,0,0,0,0,0,0,0,0,0,0,0,0,0,0,0,0,0,0,0,0,0,0,0,0,0,0,0,0,0,0,0,0,0,0,0,0,0,0,0,0,0,0,0,0,0,0,0,0,0,0,0,0,0,0,0,0,0,0,0,0,0,0,0,0,0,0,0,0,0,0,0,0,0,0,0,0,0,0,0,0,0,0,0,0,0,0,0,0,0,0,0,0,0,0,0,0,0],"sum_hessian":[2.3749053E4,1.2116402E4,1.1632651E4,3.8053171E3,8.311085E3,5.15176E3,6.4808916E3,2.7535889E3,1.0517284E3,3.6383247E3,4.6727603E3,2.487014E3,2.6647458E3,4.1052295E3,2.375662E3,8.2425745E2,1.9293314E3,3.5190254E1,1.0165381E3,8.310865E2,2.8072383E3,1.7330607E3,2.9396997E3,7.6626984E2,1.7207439E3,7.746232E2,1.8901226E3,1.2421371E3,2.8630925E3,1.9528764E2,2.1803745E3,6.717746E2,1.5248283E2,1.7004838E3,2.2884769E2,5.2801636E1,9.6373645E2,4.753514E2,3.5573508E2,2.4575842E3,3.4965408E2,1.1350029E3,5.980576E2,2.507936E3,4.3176364E2,1.7758559E2,5.8868427E2,1.4690034E3,2.5174052E2,2.5476907E2,5.198542E2,1.4597405E3,4.303821E2,9.450826E2,2.9705457E2,5.0320633E2,2.3598862E3,1.2299189E1,1.8298846E2,1.3840587E3,7.963157E2,2.5481819E2,4.169564E2,8.064888E1,7.183396E1,4.616602E2,1.2388236E3,1.9442616E2,3.4421524E1,4.564741E0,4.8236893E1,8.145466E2,1.4918991E2,1.6180172E1,4.5917123E2,1.181521E1,3.4391986E2,3.032132E2,2.154371E3,2.580877E2,9.156637E1,5.11861E2,6.2314197E2,1.1375714E2,4.843005E2,1.8175986E3,6.903376E2,1.2622537E1,4.191411E2,2.3996403E1,1.5358919E2,4.5334885E2,1.3533543E2,7.013412E2,7.6766223E2,1.2336571E1,2.3940396E2,5.7852997E1,1.9691608E2,4.897911E1,4.7087506E2,1.3326448E3,1.27095695E2,1.0332121E2,3.2706088E2,9.2797424E2,1.710831E1,2.5875653E2,3.829802E1,2.1974976E2,2.8345657E2,6.8757666E2,1.6723094E3,3.0827293E0,9.216459E0,4.7662544E0,1.782222E2,1.3496118E3,3.4446926E1,3.9547052E2,4.0084518E2],"tree_param":{"num_deleted":"0","num_feature":"28","num_nodes":"121","size_leaf_vector":"1"}},{"base_weights":[-2.8928095E-3,-5.080457E-1,5.9876287E-1,-9.8389727E-1,-3.0358687E-1,3.2438594E-1,8.831046E-1,-1.2676114E0,-7.586269E-1,-5.2194273E-1,-1.4294353E-1,2.1227929E-1,6.037582E-1,7.1382314E-1,1.0722383E0,3.931322E-2,-1.2933035E0,-1.19911E0,-5.86644E-1,-1.0393442E0,-4.4751218E-1,-3.2556242E-1,7.0661485E-2,-4.24048E-1,2.4475388E-1,4.005778E-1,7.5495213E-1,-4.26907E-1,7.280965E-1,9.9100745E-1,1.2194256E0,-3.4734365E-1,1.2403303E0,-1.4523808E0,-1.1509379E0,-8.4206027E-1,-1.443983E0,-8.133122E-1,-3.7717852E-1,-1.1153433E0,-3.1110427E-1,-9.587571E-2,-5.55431E-1,-5.165378E-1,-2.6365642E-2,9.929621E-2,-5.1201475E-1,8.2498443E-1,-6.6534984E-1,6.7609646E-3,3.4837356E-1,4.4380665E-1,-1.0859383E0,6.233845E-1,9.7908115E-1,-1.1672184E0,1.0801878E0,-9.750071E-1,7.349787E-1,8.0715644E-1,1.0475961E0,4.6597734E-1,1.2361603E0,-6.277277E-2,2.4253288E-2,7.905251E-2,2.6774457E-2,-8.1405684E-2,-6.583168E-2,-6.59158E-2,-4.821406E-2,-5.812047E-2,7.3984906E-4,-8.4870316E-2,-6.522887E-2,-1.4091417E-2,-4.6022546E-2,-1.3903553E-2,-6.597589E-2,-3.8886078E-2,-6.6806674E-2,-4.1809894E-2,1.6395366E-2,-2.4462169E-2,5.2233026E-3,-4.400283E-2,-2.1488093E-2,-4.5927867E-2,-2.1099528E-2,5.282305E-3,-1.8294139E-2,3.8229887E-4,1.772631E-2,-3.8191415E-2,2.2757096E-2,5.711353E-4,8.92133E-2,2.59365E-3,-5.6892868E-2,-5.098434E-3,2.0374393E-2,4.665939E-3,1.9775396E-2,1.8636785E-2,4.613441E-2,4.1101094E-2,-7.686483E-2,3.332528E-2,4.4176267E-3,5.175628E-2,-1.3397464E-3,3.3238437E-2,-7.5906925E-2,7.8575276E-2,4.65864E-3,-8.805586E-2,1.7109321E-2,3.730739E-2,-1.0145557E-2,5.0333936E-2,1.9195367E-2,5.4686125E-2,3.2605633E-2,4.0066145E-2,-3.533867E-2,-1.6121775E-3,6.221236E-2],"categories":[],"categories_nodes":[],"categories_segments":[],"categories_sizes":[],"default_left":[0,0,0,0,0,0,0,0,0,0,0,0,0,0,0,0,0,0,0,0,0,0,0,0,0,0,0,0,0,0,0,0,0,0,0,0,0,0,0,0,0,0,0,0,0,0,0,0,0,0,0,0,0,0,0,0,0,0,0,0,0,0,0,0,0,0,0,0,0,0,0,0,0,0,0,0,0,0,0,0,0,0,0,0,0,0,0,0,0,0,0,0,0,0,0,0,0,0,0,0,0,0,0,0,0,0,0,0,0,0,0,0,0,0,0,0,0,0,0,0,0,0,0,0,0,0,0],"id":5,"left_children":[1,3,5,7,9,11,13,15,17,19,21,23,25,27,29,31,33,35,37,39,41,43,45,47,49,51,53,55,57,59,61,63,65,67,69,71,73,75,77,79,81,83,85,87,89,91,93,95,97,99,101,103,105,107,109,111,113,115,117,119,121,123,125,-1,-1,-1,-1,-1,-1,-1,-1,-1,-1,-1,-1,-1,-1,-1,-1,-1,-1,-1,-1,-1,-1,-1,-1,-1,-1,-1,-1,-1,-1,-1,-1,-1,-1,-1,-1,-1,-1,-1,-1,-1,-1,-1,-1,-1,-1,-1,-1,-1,-1,-1,-1,-1,-1,-1,-1,-1,-1,-1,-1,-1,-1,-1,-1],"loss_changes":[7.2006807E3,1.2521218E3,8.4268945E2,2.4533887E2,3.1567017E2,1.7188684E2,1.6830225E2,5.810034E1,1.6206714E2,1.458114E2,2.0276701E2,8.12581E1,4.7494446E1,4.6143066E1,2.7622803E1,1.6464725E1,3.501953E1,5.0526733E1,7.30011E1,2.5423706E1,1.2637329E2,1.5979822E2,3.9780354E1,5.7891075E1,9.210199E1,4.356195E1,2.5137207E1,4.0208656E1,3.308484E1,1.5091187E1,9.717773E0,2.0540558E1,1.8640804E-1,1.5153564E1,2.5448364E1,6.902367E1,8.881897E0,4.1593475E1,7.466716E1,3.0128479E1,1.637518E1,6.2239502E1,1.0317737E2,6.3901703E1,4.9184914E1,5.3221985E1,2.7647818E1,2.3242872E1,5.5015717E1,4.9758083E1,3.1041779E1,2.1380814E1,1.8025934E1,1.2747986E1,1.9127289E1,1.6920464E1,4.7352905E0,1.3005544E1,2.9350586E1,3.1678345E1,2.0925049E1,9.053277E0,9.502808E0,0E0,0E0,0E0,0E0,0E0,0E0,0E0,0E0,0E0,0E0,0E0,0E0,0E0,0E0,0E0,0E0,0E0,0E0,0E0,0E0,0E0,0E0,0E0,0E0,0E0,0E0,0E0,0E0,0E0,0E0,0E0,0E0,0E0,0E0,0E0,0E0,0E0,0E0,0E0,0E0,0E0,0E0,0E0,0E0,0E0,0E0,0E0,0E0,0E0,0E0,0E0,0E0,0E0,0E0,0E0,0E0,0E0,0E0,0E0,0E0,0E0,0E0,0E0,0E0],"parents":[2147483647,0,0,1,1,2,2,3,3,4,4,5,5,6,6,7,7,8,8,9,9,10,10,11,11,12,12,13,13,14,14,15,15,16,16,17,17,18,18,19,19,20,20,21,21,22,22,23,23,24,24,25,25,26,26,27,27,28,28,29,29,30,30,31,31,32,32,33,33,34,34,35,35,36,36,37,37,38,38,39,39,40,40,41,41,42,42,43,43,44,44,45,45,46,46,47,47,48,48,49,49,50,50,51,51,52,52,53,53,54,54,55,55,56,56,57,57,58,58,59,59,60,60,61,61,62,62],"right_children":[2,4,6,8,10,12,14,16,18,20,22,24,26,28,30,32,34,36,38,40,42,44,46,48,50,52,54,56,58,60,62,64,66,68,70,72,74,76,78,80,82,84,86,88,90,92,94,96,98,100,102,104,106,108,110,112,114,116,118,120,122,124,126,-1,-1,-1,-1,-1,-1,-1,-1,-1,-1,-1,-1,-1,-1,-1,-1,-1,-1,-1,-1,-1,-1,-1,-1,-1,-1,-1,-1,-1,-1,-1,-1,-1,-1,-1,-1,-1,-1,-1,-1,-1,-1,-1,-1,-1,-1,-1,-1,-1,-1,-1,-1,-1,-1,-1,-1,-1,-1,-1,-1,-1,-1,-1,-1],"split_conditions":[1.0124768E-2,5.368055E-3,1.5129637E-2,5.0641407E1,-7.708384E-5,6.4107557E-3,2.170525E-2,-6.6721262E-3,3.5637403E-3,5.017541E-1,9.152749E-1,-4.2823677E0,1.205925E-2,3.4865793E-2,3.3306047E-2,-1.4243733E-2,4.0362123E-3,3.427788E-5,-1.0699E-2,9.497733E-3,-8.576397E-3,8.150909E-3,3.3525657E-3,8.26545E-3,1.1217572E-2,1.0853995E-2,8.390287E-2,2.6874084E-2,2.6541567E-1,-3.36775E-3,6.308081E-2,-2.0364732E-3,-1.3541289E-2,-6.5715035E-4,5.5007663E-2,5.82503E1,6.636567E1,3.4162668E-3,3.4070618E-3,-7.2157397E-3,-2.7776395E-3,7.576972E-3,4.0197414E1,-6.014065E-1,6.318025E-3,2.4026359E-2,8.105062E1,8.703355E-2,9.861989E0,6.7156273E-1,8.034952E-3,2.720552E0,-2.3917437E-3,1.0394753E-2,1.5277788E-1,6.0713254E-3,1.0036708E-2,6.8286985E-1,1.9630859E-2,3.2205624E1,8.7824646E1,5.849573E-2,2.2922636E-3,-6.277277E-2,2.4253288E-2,7.905251E-2,2.6774457E-2,-8.1405684E-2,-6.583168E-2,-6.59158E-2,-4.821406E-2,-5.812047E-2,7.3984906E-4,-8.4870316E-2,-6.522887E-2,-1.4091417E-2,-4.6022546E-2,-1.3903553E-2,-6.597589E-2,-3.8886078E-2,-6.6806674E-2,-4.1809894E-2,1.6395366E-2,-2.4462169E-2,5.2233026E-3,-4.400283E-2,-2.1488093E-2,-4.5927867E-2,-2.1099528E-2,5.282305E-3,-1.8294139E-2,3.8229887E-4,1.772631E-2,-3.8191415E-2,2.2757096E-2,5.711353E-4,8.92133E-2,2.59365E-3,-5.6892868E-2,-5.098434E-3,2.0374393E-2,4.665939E-3,1.9775396E-2,1.8636785E-2,4.613441E-2,4.1101094E-2,-7.686483E-2,3.332528E-2,4.4176267E-3,5.175628E-2,-1.3397464E-3,3.3238437E-2,-7.5906925E-2,7.8575276E-2,4.65864E-3,-8.805586E-2,1.7109321E-2,3.730739E-2,-1.0145557E-2,5.0333936E-2,1.9195367E-2,5.4686125E-2,3.2605633E-2,4.0066145E-2,-3.533867E-2,-1.6121775E-3,6.221236E-2],"split_indices":[15,15,15,0,8,6,15,6,15,16,16,4,15,12,22,10,15,7,18,15,10,15,7,13,15,14,12,10,16,7,12,8,10,6,18,0,2,24,14,10,5,15,0,18,14,9,0,12,1,23,22,3,7,14,12,14,6,23,14,1,1,12,24,0,0,0,0,0,0,0,0,0,0,0,0,0,0,0,0,0,0,0,0,0,0,0,0,0,0,0,0,0,0,0,0,0,0,0,0,0,0,0,0,0,0,0,0,0,0,0,0,0,0,0,0,0,0,0,0,0,0,0,0,0,0,0,0],"split_type":[0,0,0,0,0,0,0,0,0,0,0,0,0,0,0,0,0,0,0,0,0,0,0,0,0,0,0,0,0,0,0,0,0,0,0,0,0,0,0,0,0,0,0,0,0,0,0,0,0,0,0,0,0,0,0,0,0,0,0,0,0,0,0,0,0,0,0,0,0,0,0,0,0,0,0,0,0,0,0,0,0,0,0,0,0,0,0,0,0,0,0,0,0,0,0,0,0,0,0,0,0,0,0,0,0,0,0,0,0,0,0,0,0,0,0,0,0,0,0,0,0,0,0,0,0,0,0],"sum_hessian":[2.3690201E4,1.2878413E4,1.0811788E4,3.8685662E3,9.009847E3,5.504293E3,5.307495E3,1.7091503E3,2.1594158E3,3.8166582E3,5.1931885E3,3.9305784E3,1.5737146E3,2.8046504E3,2.5028447E3,3.256596E1,1.6765844E3,6.0387915E2,1.5555367E3,4.7751917E2,3.339139E3,2.8006365E3,2.392552E3,1.8952148E2,3.741057E3,6.743938E2,8.993208E2,3.3869274E1,2.7707812E3,1.6199454E3,8.8289935E2,2.4857716E1,7.708245E0,7.858131E2,8.907712E2,2.4830522E2,3.555739E2,7.445593E2,8.109774E2,4.312914E2,4.6227745E1,7.856718E2,2.553467E3,1.7080205E3,1.0926161E3,2.2820898E3,1.1046209E2,2.9958511E1,1.5956299E2,1.1365432E3,2.6045137E3,6.5634467E2,1.8049128E1,5.704619E2,3.288589E2,2.3086206E1,1.0783067E1,1.029301E1,2.7604883E3,3.8693408E2,1.2330114E3,2.0459827E1,8.624395E2,1.1932489E1,1.2925226E1,3.880098E0,3.8281467E0,3.360714E2,4.4974173E2,4.6503015E2,4.2574106E2,1.8089995E2,6.740527E1,1.209457E2,2.3462822E2,1.2630327E2,6.1825604E2,7.354541E2,7.552329E1,1.7321155E2,2.5807986E2,2.5635893E1,2.059185E1,2.6547327E2,5.2019855E2,7.098408E2,1.8436263E3,3.2254404E2,1.3854766E3,7.86157E2,3.0645905E2,1.6813315E3,6.007584E2,8.821994E1,2.2242151E1,1.7040056E1,1.2918455E1,6.330455E1,9.625843E1,8.935839E2,2.4295926E2,4.083619E2,2.1961516E3,5.7398224E2,8.236243E1,3.0839233E0,1.4965203E1,5.268222E2,4.3639694E1,3.1194617E2,1.6912704E1,3.3384674E0,1.9747738E1,6.4657707E0,4.3172965E0,6.4726567E0,3.8203528E0,2.72873E3,3.1758152E1,2.6122922E2,1.2570488E2,1.1015092E3,1.3150209E2,1.6488142E1,3.9716852E0,5.0531282E0,8.573864E2],"tree_param":{"num_deleted":"0","num_feature":"28","num_nodes":"127","size_leaf_vector":"1"}},{"base_weights":[2.1860699E-4,-4.758925E-1,5.725831E-1,-9.315823E-1,-2.7097404E-1,3.1060958E-1,8.489437E-1,-1.0887469E0,-5.6634176E-1,-6.3544184E-1,-1.7034982E-1,2.470608E-1,7.027714E-1,6.8934953E-1,1.0285798E0,-1.3069422E0,-9.853213E-1,-1.326879E0,-4.734442E-1,-9.047845E-1,-4.499724E-1,-3.9498997E-1,-7.6403487E-3,-7.089301E-1,2.707231E-1,8.060137E-1,2.3208033E-1,-1.9333483E-1,7.011938E-1,1.0603908E0,6.4563483E-1,7.6998925E-1,-1.325762E0,-1.3269395E0,-9.2974037E-1,-7.413506E-1,-1.5598769E0,-3.236013E-1,-1.1543174E0,-1.0707084E0,-5.890961E-1,-7.5918514E-1,-2.659013E-1,5.2423336E-2,-4.5941845E-1,-1.3569278E-1,1.387393E-1,-4.35929E-1,-1.6024082E0,9.497565E-2,4.0132156E-1,3.777899E-1,9.0414673E-1,-8.768627E-2,4.1373405E-1,4.9011365E-1,-1.4761113E0,3.883338E-1,7.3723906E-1,9.058144E-1,1.110101E0,8.5560456E-2,7.5622314E-1,-3.5516561E-3,7.084833E-2,-5.4880418E-2,-7.200964E-2,-7.044448E-2,7.0545017E-3,-4.9563702E-2,-2.767897E-2,1.9354766E-2,-7.1192026E-2,-1.954155E-2,-8.061521E-2,-3.492978E-2,-7.999652E-3,-6.556262E-2,1.272768E-2,-3.908549E-2,-6.1154533E-2,-2.1110324E-2,-8.164373E-2,3.275946E-2,-4.170398E-2,-1.720435E-2,2.2882892E-2,-2.055946E-2,1.8756492E-2,-5.4191973E-2,-2.0966372E-2,-1.4535623E-2,1.530784E-3,-2.5603933E-2,8.253942E-3,-1.1065572E-2,-7.331565E-2,-3.835164E-3,-8.988669E-2,-3.440663E-2,7.0635937E-3,-8.159615E-3,2.1388534E-2,6.2408973E-3,5.8812853E-2,-1.9924162E-2,4.6556246E-2,1.2246319E-2,6.139929E-2,-1.0604023E-2,5.647719E-2,-4.847841E-3,-9.141985E-2,2.7862076E-2,-9.39571E-3,5.2600514E-2,3.525002E-2,3.6228064E-2,5.633377E-2,6.550811E-2,5.3404327E-2,3.9334297E-2,-4.726256E-2,5.7100683E-2,2.5420574E-2],"categories":[],"categories_nodes":[],"categories_segments":[],"categories_sizes":[],"default_left":[0,0,0,0,0,0,0,0,0,0,0,0,0,0,0,0,0,0,0,0,0,0,0,0,0,0,0,0,0,0,0,0,0,0,0,0,0,0,0,0,0,0,0,0,0,0,0,0,0,0,0,0,0,0,0,0,0,0,0,0,0,0,0,0,0,0,0,0,0,0,0,0,0,0,0,0,0,0,0,0,0,0,0,0,0,0,0,0,0,0,0,0,0,0,0,0,0,0,0,0,0,0,0,0,0,0,0,0,0,0,0,0,0,0,0,0,0,0,0,0,0,0,0,0,0],"id":6,"left_children":[1,3,5,7,9,11,13,15,17,19,21,23,25,27,29,31,33,35,37,39,41,43,45,47,49,51,53,55,57,59,61,63,65,67,69,71,73,75,77,79,81,83,85,87,89,91,93,95,97,99,101,103,105,-1,107,109,111,113,115,117,119,121,123,-1,-1,-1,-1,-1,-1,-1,-1,-1,-1,-1,-1,-1,-1,-1,-1,-1,-1,-1,-1,-1,-1,-1,-1,-1,-1,-1,-1,-1,-1,-1,-1,-1,-1,-1,-1,-1,-1,-1,-1,-1,-1,-1,-1,-1,-1,-1,-1,-1,-1,-1,-1,-1,-1,-1,-1,-1,-1,-1,-1,-1,-1],"loss_changes":[6.4147607E3,1.1990459E3,7.7308203E2,2.2729346E2,3.2464178E2,1.3617487E2,1.4752417E2,6.0391113E1,8.338522E1,9.466589E1,2.538338E2,1.06907196E2,3.6419067E1,2.922754E1,2.8224365E1,3.6111084E1,3.3605957E1,1.5385208E1,1.08376816E2,3.937213E1,6.406833E1,8.434778E1,7.561357E1,2.607613E1,1.05622375E2,2.5292938E1,5.0450237E1,3.3433975E1,2.985437E1,1.5298096E1,1.13535E1,5.339807E0,2.0209595E1,3.2289276E1,3.6496338E1,3.1437841E1,3.9610748E0,5.354619E1,4.3442963E1,2.0444519E1,4.5634407E1,4.546176E1,4.0607597E1,5.5080788E1,6.2678345E1,5.5658806E1,3.2147377E1,1.8530874E1,6.633026E0,7.124821E1,3.9697662E1,2.328811E1,1.8455505E1,0E0,1.6698708E1,1.1685925E1,5.3107643E0,2.8011719E1,2.3128418E1,2.052008E1,1.1683105E1,2.4797537E1,1.3771515E1,0E0,0E0,0E0,0E0,0E0,0E0,0E0,0E0,0E0,0E0,0E0,0E0,0E0,0E0,0E0,0E0,0E0,0E0,0E0,0E0,0E0,0E0,0E0,0E0,0E0,0E0,0E0,0E0,0E0,0E0,0E0,0E0,0E0,0E0,0E0,0E0,0E0,0E0,0E0,0E0,0E0,0E0,0E0,0E0,0E0,0E0,0E0,0E0,0E0,0E0,0E0,0E0,0E0,0E0,0E0,0E0,0E0,0E0,0E0,0E0,0E0,0E0],"parents":[2147483647,0,0,1,1,2,2,3,3,4,4,5,5,6,6,7,7,8,8,9,9,10,10,11,11,12,12,13,13,14,14,15,15,16,16,17,17,18,18,19,19,20,20,21,21,22,22,23,23,24,24,25,25,26,26,27,27,28,28,29,29,30,30,31,31,32,32,33,33,34,34,35,35,36,36,37,37,38,38,39,39,40,40,41,41,42,42,43,43,44,44,45,45,46,46,47,47,48,48,49,49,50,50,51,51,52,52,54,54,55,55,56,56,57,57,58,58,59,59,60,60,61,61,62,62],"right_children":[2,4,6,8,10,12,14,16,18,20,22,24,26,28,30,32,34,36,38,40,42,44,46,48,50,52,54,56,58,60,62,64,66,68,70,72,74,76,78,80,82,84,86,88,90,92,94,96,98,100,102,104,106,-1,108,110,112,114,116,118,120,122,124,-1,-1,-1,-1,-1,-1,-1,-1,-1,-1,-1,-1,-1,-1,-1,-1,-1,-1,-1,-1,-1,-1,-1,-1,-1,-1,-1,-1,-1,-1,-1,-1,-1,-1,-1,-1,-1,-1,-1,-1,-1,-1,-1,-1,-1,-1,-1,-1,-1,-1,-1,-1,-1,-1,-1,-1,-1,-1,-1,-1,-1,-1],"split_conditions":[1.0124768E-2,5.4452214E-3,1.5129637E-2,2.7582117E-3,5.9859115E-1,1.1828181E-2,2.170525E-2,5.1647364E-3,3.327434E-3,-4.8206662E-4,1.4837732E-2,-3.4994107E-2,1.0251405E-2,3.4865793E-2,8.7824646E1,-6.6721262E-3,4.5484206E-1,7.251918E1,3.3805382E-3,8.233876E-3,7.047645E-3,-1.2594993E-2,1.019503E0,1.120361E-2,1.1710439E-2,1.1302293E-2,1.1529085E-2,1.0363668E0,5.8392906E-1,7.234261E-1,3.493102E-2,4.4007436E-3,-1.5509813E-3,5.304439E-3,6.1295535E-3,-5.2106064E-3,-1.1060452E-3,7.5332075E-1,8.033645E-3,-7.409457E-3,3.6099926E-2,2.3854468E-3,8.8513306E1,8.025976E-3,5.8825564E-1,8.063589E-3,2.712098E-3,1.7108387E1,5.1776543E-3,-1.0218515E-2,4.8674762E-1,9.326592E1,6.2250267E-3,-8.768627E-2,4.5167215E-2,-2.5747538E-2,-7.563297E-3,5.4232794E-1,8.5578235E-3,-6.2063944E-1,-9.240011E-2,-7.814901E-3,5.1206686E-2,-3.5516561E-3,7.084833E-2,-5.4880418E-2,-7.200964E-2,-7.044448E-2,7.0545017E-3,-4.9563702E-2,-2.767897E-2,1.9354766E-2,-7.1192026E-2,-1.954155E-2,-8.061521E-2,-3.492978E-2,-7.999652E-3,-6.556262E-2,1.272768E-2,-3.908549E-2,-6.1154533E-2,-2.1110324E-2,-8.164373E-2,3.275946E-2,-4.170398E-2,-1.720435E-2,2.2882892E-2,-2.055946E-2,1.8756492E-2,-5.4191973E-2,-2.0966372E-2,-1.4535623E-2,1.530784E-3,-2.5603933E-2,8.253942E-3,-1.1065572E-2,-7.331565E-2,-3.835164E-3,-8.988669E-2,-3.440663E-2,7.0635937E-3,-8.159615E-3,2.1388534E-2,6.2408973E-3,5.8812853E-2,-1.9924162E-2,4.6556246E-2,1.2246319E-2,6.139929E-2,-1.0604023E-2,5.647719E-2,-4.847841E-3,-9.141985E-2,2.7862076E-2,-9.39571E-3,5.2600514E-2,3.525002E-2,3.6228064E-2,5.633377E-2,6.550811E-2,5.3404327E-2,3.9334297E-2,-4.726256E-2,5.7100683E-2,2.5420574E-2],"split_indices":[15,15,15,8,16,27,15,25,15,8,25,8,14,12,1,6,16,1,14,15,15,10,16,14,15,15,15,16,17,17,8,22,19,14,10,13,19,16,27,10,13,14,1,15,17,15,14,1,22,27,17,1,22,0,10,13,9,17,25,4,9,27,8,0,0,0,0,0,0,0,0,0,0,0,0,0,0,0,0,0,0,0,0,0,0,0,0,0,0,0,0,0,0,0,0,0,0,0,0,0,0,0,0,0,0,0,0,0,0,0,0,0,0,0,0,0,0,0,0,0,0,0,0,0,0],"split_type":[0,0,0,0,0,0,0,0,0,0,0,0,0,0,0,0,0,0,0,0,0,0,0,0,0,0,0,0,0,0,0,0,0,0,0,0,0,0,0,0,0,0,0,0,0,0,0,0,0,0,0,0,0,0,0,0,0,0,0,0,0,0,0,0,0,0,0,0,0,0,0,0,0,0,0,0,0,0,0,0,0,0,0,0,0,0,0,0,0,0,0,0,0,0,0,0,0,0,0,0,0,0,0,0,0,0,0,0,0,0,0,0,0,0,0,0,0,0,0,0,0,0,0,0,0],"sum_hessian":[2.3537443E4,1.2848742E4,1.06887E4,3.9837803E3,8.864962E3,5.4891978E3,5.1995024E3,2.7829253E3,1.2008552E3,1.9157393E3,6.949222E3,4.72623E3,7.629678E2,2.7573816E3,2.4421208E3,8.896258E2,1.8932994E3,1.28683E2,1.0721721E3,7.7854517E2,1.1371941E3,2.917189E3,4.0320334E3,1.12946266E2,4.6132837E3,6.2426556E2,1.3870226E2,3.574813E1,2.7216335E3,2.2519758E3,1.9014507E2,7.39184E0,8.8223395E2,2.6047375E2,1.6328257E3,3.843153E1,9.025147E1,8.80587E2,1.9158519E2,5.0771686E2,2.708283E2,4.2216962E2,7.150244E2,3.6625006E2,2.550939E3,2.152512E3,1.8795215E3,8.80808E1,2.4865461E1,1.9690596E3,2.644224E3,1.1824103E2,5.060245E2,1.0668577E1,1.2803369E2,2.3471132E1,1.2276999E1,2.838203E2,2.4378132E3,5.551104E2,1.6968655E3,3.239181E1,1.5775325E2,3.2649853E0,4.126855E0,2.9968274E2,5.825512E2,2.470628E2,1.3410941E1,1.4007258E3,2.3209976E2,1.4370763E1,2.4060768E1,4.645935E0,8.560554E1,2.6556937E2,6.150176E2,1.7276497E2,1.882022E1,1.7853319E2,3.291837E2,2.3511873E2,3.5709587E1,2.0505266E1,4.0166437E2,6.4639264E2,6.863181E1,1.4956117E2,2.1668889E2,1.5157901E2,2.3993599E3,1.1152356E3,1.0372764E3,7.165242E1,1.807869E3,7.430412E1,1.3776683E1,3.2706501E0,2.1594812E1,1.0853353E2,1.8605261E3,1.17267395E2,2.5269568E3,9.114637E1,2.7094656E1,9.611952E0,4.9641257E2,1.0763422E2,2.039947E1,1.11324005E1,1.2338731E1,3.0461657E0,9.230834E0,2.2018204E2,6.3638287E1,2.2210335E2,2.21571E3,3.0848874E2,2.466217E2,2.8720282E2,1.4096626E3,1.9708557E1,1.2683253E1,5.9499325E1,9.825393E1],"tree_param":{"num_deleted":"0","num_feature":"28","num_nodes":"125","size_leaf_vector":"1"}},{"base_weights":[7.834717E-3,-5.09576E-1,4.8759213E-1,-9.566254E-1,-3.342521E-1,2.6526475E-1,8.2811314E-1,-1.1027087E0,-5.9483624E-1,-1.05721E-1,-5.321512E-1,7.5544916E-2,4.236296E-1,6.734275E-1,9.8198074E-1,-1.2689595E0,-9.966671E-1,-1.1703439E0,-4.7235554E-1,-2.845926E-1,7.866469E-2,-8.391764E-1,-4.0423742E-1,-5.138008E-1,1.278723E-1,3.609219E-1,7.616185E-1,-4.1126424E-1,6.840589E-1,1.3276381E0,9.609038E-1,-1.3452494E0,-9.350981E-1,-1.2252674E0,-8.661202E-1,-1.3415049E0,-2.1652852E-1,-3.7127778E-1,-9.633041E-1,-6.212738E-1,-4.8320133E-2,-3.2608652E-1,1.5781175E-1,-9.492896E-1,-5.680555E-1,-6.271113E-1,-1.9133335E-1,-3.856909E-1,-1.6322278E0,-3.2466298E-1,1.6924067E-1,-1.1631031E-1,3.9547017E-1,-1.2401731E0,7.9029584E-1,4.247215E-2,-9.9101454E-1,7.837342E-1,5.843911E-1,6.710504E-2,2.2174334E-2,9.8428905E-1,7.0608354E-1,-6.999028E-2,-5.1314157E-2,-5.717E-2,-2.2629568E-2,-9.324807E-3,-6.305844E-2,-4.9124107E-2,-2.7812133E-2,-2.0869454E-2,-7.1587995E-2,-5.6604203E-2,3.2752022E-2,-4.4166306E-3,-2.6741726E-2,-6.1078865E-2,1.4121033E-2,-5.4312885E-2,-2.2367543E-2,-5.272319E-3,2.9720575E-2,-2.134676E-2,3.7351016E-2,-9.209433E-3,1.2327689E-2,-4.96982E-2,-4.193256E-3,-4.7814462E-2,-1.4032984E-2,-4.8744963E-3,-3.6206905E-2,2.556479E-2,-1.2294245E-2,-6.289601E-2,-1.1778449E-2,-8.989776E-2,-5.35873E-3,1.6201608E-2,-2.5736913E-2,-5.6333072E-2,9.100931E-3,2.4579888E-2,-2.1963531E-2,-1.6145723E-2,2.0431004E-2,-8.4200956E-2,-7.4825957E-3,6.0914975E-2,3.4436677E-2,9.5183135E-4,-8.9090936E-2,3.9632235E-2,-8.243838E-2,1.0442224E-2,3.2116048E-2,4.6757855E-2,5.9331324E-2,-4.468624E-2,3.7630398E-2],"categories":[],"categories_nodes":[],"categories_segments":[],"categories_sizes":[],"default_left":[0,0,0,0,0,0,0,0,0,0,0,0,0,0,0,0,0,0,0,0,0,0,0,0,0,0,0,0,0,0,0,0,0,0,0,0,0,0,0,0,0,0,0,0,0,0,0,0,0,0,0,0,0,0,0,0,0,0,0,0,0,0,0,0,0,0,0,0,0,0,0,0,0,0,0,0,0,0,0,0,0,0,0,0,0,0,0,0,0,0,0,0,0,0,0,0,0,0,0,0,0,0,0,0,0,0,0,0,0,0,0,0,0,0,0,0,0,0,0,0,0],"id":7,"left_children":[1,3,5,7,9,11,13,15,17,19,21,23,25,27,29,31,33,35,37,39,41,43,45,47,49,51,53,55,57,59,61,63,65,67,69,71,73,75,77,79,81,83,85,87,89,91,93,95,97,99,101,103,105,107,109,-1,111,113,115,-1,-1,117,119,-1,-1,-1,-1,-1,-1,-1,-1,-1,-1,-1,-1,-1,-1,-1,-1,-1,-1,-1,-1,-1,-1,-1,-1,-1,-1,-1,-1,-1,-1,-1,-1,-1,-1,-1,-1,-1,-1,-1,-1,-1,-1,-1,-1,-1,-1,-1,-1,-1,-1,-1,-1,-1,-1,-1,-1,-1,-1],"loss_changes":[5.8330654E3,8.851123E2,9.2236206E2,1.6673828E2,3.6698645E2,2.2142987E2,1.1311548E2,3.754297E1,6.339096E1,1.2453323E2,1.6994275E2,1.0349016E2,8.4373535E1,2.816272E1,1.5138672E1,1.9933838E1,3.9367065E1,2.5024628E1,3.6687653E1,1.5207037E2,5.945001E1,3.684778E1,1.4538055E2,3.7537407E1,5.777792E1,5.6150055E1,3.6750275E1,1.8103746E1,2.253601E1,2.3225403E-1,1.2025879E1,9.7092285E0,1.5528046E1,1.773822E1,3.075354E1,9.727615E0,2.1691647E1,2.8920464E1,4.2086716E1,6.2575897E1,4.123458E1,3.2949474E1,4.7264946E1,3.4401306E1,4.071524E1,7.66369E1,6.0371433E1,3.1303158E1,5.777237E0,3.206591E1,4.6604515E1,4.513654E1,3.0086884E1,3.1867723E0,2.5115936E1,0E0,1.437014E1,2.6590332E1,2.550763E1,0E0,0E0,1.8516357E1,1.5242432E1,0E0,0E0,0E0,0E0,0E0,0E0,0E0,0E0,0E0,0E0,0E0,0E0,0E0,0E0,0E0,0E0,0E0,0E0,0E0,0E0,0E0,0E0,0E0,0E0,0E0,0E0,0E0,0E0,0E0,0E0,0E0,0E0,0E0,0E0,0E0,0E0,0E0,0E0,0E0,0E0,0E0,0E0,0E0,0E0,0E0,0E0,0E0,0E0,0E0,0E0,0E0,0E0,0E0,0E0,0E0,0E0,0E0,0E0],"parents":[2147483647,0,0,1,1,2,2,3,3,4,4,5,5,6,6,7,7,8,8,9,9,10,10,11,11,12,12,13,13,14,14,15,15,16,16,17,17,18,18,19,19,20,20,21,21,22,22,23,23,24,24,25,25,26,26,27,27,28,28,29,29,30,30,31,31,32,32,33,33,34,34,35,35,36,36,37,37,38,38,39,39,40,40,41,41,42,42,43,43,44,44,45,45,46,46,47,47,48,48,49,49,50,50,51,51,52,52,53,53,54,54,56,56,57,57,58,58,61,61,62,62],"right_children":[2,4,6,8,10,12,14,16,18,20,22,24,26,28,30,32,34,36,38,40,42,44,46,48,50,52,54,56,58,60,62,64,66,68,70,72,74,76,78,80,82,84,86,88,90,92,94,96,98,100,102,104,106,108,110,-1,112,114,116,-1,-1,118,120,-1,-1,-1,-1,-1,-1,-1,-1,-1,-1,-1,-1,-1,-1,-1,-1,-1,-1,-1,-1,-1,-1,-1,-1,-1,-1,-1,-1,-1,-1,-1,-1,-1,-1,-1,-1,-1,-1,-1,-1,-1,-1,-1,-1,-1,-1,-1,-1,-1,-1,-1,-1,-1,-1,-1,-1,-1,-1],"split_conditions":[9.233278E-3,5.0194105E-3,1.5725905E-2,2.7582117E-3,1.0927102E-2,1.1450421E-2,2.170525E-2,2.617784E-3,3.4410118E-3,9.2950827E-1,6.3134676E-1,-1.935423E-2,1.26418965E-2,3.4570508E-2,6.5715947E0,3.982493E-3,-2.2161095E-3,5.1450063E-3,3.2260548E-3,6.5477784E-3,-1.6404961E-3,8.063589E-3,2.974412E-1,1.3084003E-2,4.742717E-1,-4.066709E0,-7.81387E-1,7.07403E-3,1.120361E-2,-2.1132479E0,8.7824646E1,1.3090702E-3,1.1521607E-1,-5.567403E-3,4.9877408E-1,2.9509487E-3,8.375405E-1,2.8864539E-3,1.2878035E-2,-2.0506808E-3,2.3832835E-2,7.609453E-1,-2.8302732E-3,2.3168204E-2,-5.0044614E-1,-1.0293578E-2,-7.2571416E-3,-3.2261302E0,1.1217572E-2,1.3710083E-1,-1.1455415E-2,7.423775E-3,5.53657E-3,1.4493936E-1,6.697994E-1,4.247215E-2,1.6184222E-2,6.633726E0,-2.9774461E-2,6.710504E-2,2.2174334E-2,2.4469044E-2,7.0644744E-2,-6.999028E-2,-5.1314157E-2,-5.717E-2,-2.2629568E-2,-9.324807E-3,-6.305844E-2,-4.9124107E-2,-2.7812133E-2,-2.0869454E-2,-7.1587995E-2,-5.6604203E-2,3.2752022E-2,-4.4166306E-3,-2.6741726E-2,-6.1078865E-2,1.4121033E-2,-5.4312885E-2,-2.2367543E-2,-5.272319E-3,2.9720575E-2,-2.134676E-2,3.7351016E-2,-9.209433E-3,1.2327689E-2,-4.96982E-2,-4.193256E-3,-4.7814462E-2,-1.4032984E-2,-4.8744963E-3,-3.6206905E-2,2.556479E-2,-1.2294245E-2,-6.289601E-2,-1.1778449E-2,-8.989776E-2,-5.35873E-3,1.6201608E-2,-2.5736913E-2,-5.6333072E-2,9.100931E-3,2.4579888E-2,-2.1963531E-2,-1.6145723E-2,2.0431004E-2,-8.4200956E-2,-7.4825957E-3,6.0914975E-2,3.4436677E-2,9.5183135E-4,-8.9090936E-2,3.9632235E-2,-8.243838E-2,1.0442224E-2,3.2116048E-2,4.6757855E-2,5.9331324E-2,-4.468624E-2,3.7630398E-2],"split_indices":[15,15,15,8,24,15,15,22,15,16,16,8,5,12,1,15,8,24,14,15,19,15,11,25,16,4,18,14,14,4,1,6,4,6,18,8,16,24,10,10,10,23,10,10,18,10,6,3,15,23,5,25,22,12,11,0,15,18,8,0,0,8,25,0,0,0,0,0,0,0,0,0,0,0,0,0,0,0,0,0,0,0,0,0,0,0,0,0,0,0,0,0,0,0,0,0,0,0,0,0,0,0,0,0,0,0,0,0,0,0,0,0,0,0,0,0,0,0,0,0,0],"split_type":[0,0,0,0,0,0,0,0,0,0,0,0,0,0,0,0,0,0,0,0,0,0,0,0,0,0,0,0,0,0,0,0,0,0,0,0,0,0,0,0,0,0,0,0,0,0,0,0,0,0,0,0,0,0,0,0,0,0,0,0,0,0,0,0,0,0,0,0,0,0,0,0,0,0,0,0,0,0,0,0,0,0,0,0,0,0,0,0,0,0,0,0,0,0,0,0,0,0,0,0,0,0,0,0,0,0,0,0,0,0,0,0,0,0,0,0,0,0,0,0,0],"sum_hessian":[2.3496523E4,1.1304112E4,1.219241E4,3.1823347E3,8.121778E3,7.3783237E3,4.814086E3,2.264532E3,9.178029E2,3.771066E3,4.350712E3,3.3589558E3,4.0193682E3,2.4049634E3,2.4091228E3,8.75792E2,1.3887399E3,1.5883546E2,7.5896747E2,1.915255E3,1.8558108E3,1.2767418E3,3.0739702E3,2.7241895E2,3.0865369E3,3.393342E3,6.26026E2,2.2520676E1,2.3824426E3,1.3353093E2,2.275592E3,7.092062E2,1.6658585E2,5.0035452E2,8.883854E2,1.3388014E2,2.4955326E1,6.316885E2,1.2727898E2,7.88261E2,1.126994E3,3.0199533E2,1.5538154E3,9.048855E2,3.7185638E2,1.4997236E3,1.5742466E3,2.4602946E2,2.6389471E1,2.5693616E2,2.8296008E3,2.2793452E2,3.1654075E3,7.9987855E0,6.180272E2,6.6758814E0,1.5844794E1,1.1852367E3,1.1972059E3,1.3031581E2,3.21512E0,2.0798926E3,1.9569945E2,6.013882E2,1.07817955E2,1.1467419E2,5.1911663E1,1.7387476E1,4.8296704E2,6.431082E2,2.4527715E2,1.2905509E1,1.2097464E2,1.2304555E1,1.265077E1,2.3307582E2,3.9861264E2,1.0577057E2,2.1508408E1,2.1236952E2,5.758915E2,1.0364847E3,9.050931E1,2.7702875E2,2.4966589E1,3.1873636E2,1.2350791E3,8.597764E2,4.510902E1,1.5644827E2,2.154081E2,2.333173E2,1.2664064E3,1.1215399E2,1.4620927E3,3.4554287E1,2.1147519E2,2.3345694E1,3.0437787E0,5.7468952E1,1.9946721E2,2.639496E1,2.8032058E3,7.836249E1,1.4957204E2,5.5793785E1,3.1096138E3,4.9723086E0,3.026477E0,1.15474815E2,5.025524E2,7.1087875E0,8.736007E0,1.1817874E3,3.4493105E0,1.6176358E2,1.0354424E3,1.6800359E3,3.998566E2,4.7120485E0,1.9098741E2],"tree_param":{"num_deleted":"0","num_feature":"28","num_nodes":"121","size_leaf_vector":"1"}},{"base_weights":[3.4696583E-3,-4.988183E-1,4.616167E-1,-8.6561126E-1,-3.0002207E-1,2.3026568E-1,7.769752E-1,-1.0091101E0,-5.827375E-1,-8.787163E-2,-4.769521E-1,1.0355052E-1,4.2432564E-1,5.8336294E-1,9.0299267E-1,-1.224048E0,-8.823136E-1,-9.415766E-1,-4.577938E-1,-2.7534834E-1,7.746248E-2,-8.898333E-1,-3.840849E-1,-1.5725799E-1,1.8619482E-1,-9.599857E-1,4.4382468E-1,-7.243076E-1,5.946576E-1,1.0023103E0,8.116963E-1,-1.3773494E0,-1.0476539E0,-1.0711763E0,-7.40386E-1,-4.9512914E-1,-1.1956842E0,-3.3782908E-1,-9.783656E-1,-5.387518E-1,-3.438272E-2,-2.9398978E-1,1.592375E-1,-9.529369E-1,1.08801074E-1,-8.102852E-1,-3.1428003E-1,-9.5372325E-1,-8.344564E-2,-5.293424E-1,2.080148E-1,6.202122E-1,-1.3513708E0,3.4060872E-1,6.707937E-1,5.036884E-2,-8.920715E-2,-2.1278447E-1,6.1248845E-1,8.0911934E-1,1.0439633E0,6.7020524E-1,9.1764355E-1,-4.025654E-2,-7.07851E-2,-2.8285913E-3,-5.550158E-2,-2.7421823E-2,-5.6174766E-2,-4.4421714E-2,-2.2479197E-2,-4.5607295E-2,1.3525394E-2,-4.7809344E-2,-7.552757E-2,-8.2867466E-2,-1.4374509E-2,5.00036E-3,-5.450226E-2,-4.8269402E-2,-1.9114885E-2,1.634123E-2,-1.6039936E-2,-4.4147573E-2,-5.992432E-3,-7.1631237E-3,1.296168E-2,5.943631E-2,-4.824435E-2,-1.6643127E-2,4.928885E-2,-5.0289657E-2,-2.5257615E-2,-2.7394382E-2,-6.237255E-3,3.7990373E-2,-6.0635354E-2,5.8838665E-2,-6.0802894E-3,-6.730701E-2,-6.4668953E-3,3.0686995E-2,8.824109E-3,7.357973E-2,-1.9469477E-2,-7.994986E-2,-1.4433605E-2,-9.385723E-3,1.9000633E-2,2.6442736E-2,4.484944E-2,1.3721135E-2,-6.643932E-2,-8.440051E-2,3.0967727E-2,1.0443167E-2,4.519121E-2,5.0610133E-2,6.26497E-2,1.4792307E-2,3.798696E-2,4.782582E-2,3.1425755E-3],"categories":[],"categories_nodes":[],"categories_segments":[],"categories_sizes":[],"default_left":[0,0,0,0,0,0,0,0,0,0,0,0,0,0,0,0,0,0,0,0,0,0,0,0,0,0,0,0,0,0,0,0,0,0,0,0,0,0,0,0,0,0,0,0,0,0,0,0,0,0,0,0,0,0,0,0,0,0,0,0,0,0,0,0,0,0,0,0,0,0,0,0,0,0,0,0,0,0,0,0,0,0,0,0,0,0,0,0,0,0,0,0,0,0,0,0,0,0,0,0,0,0,0,0,0,0,0,0,0,0,0,0,0,0,0,0,0,0,0,0,0,0,0],"id":8,"left_children":[1,3,5,7,9,11,13,15,17,19,21,23,25,27,29,31,33,35,37,39,41,43,45,47,49,51,53,55,57,59,61,63,65,67,69,71,73,75,77,79,81,83,85,87,89,91,93,95,97,99,101,103,105,107,109,-1,-1,111,113,115,117,119,121,-1,-1,-1,-1,-1,-1,-1,-1,-1,-1,-1,-1,-1,-1,-1,-1,-1,-1,-1,-1,-1,-1,-1,-1,-1,-1,-1,-1,-1,-1,-1,-1,-1,-1,-1,-1,-1,-1,-1,-1,-1,-1,-1,-1,-1,-1,-1,-1,-1,-1,-1,-1,-1,-1,-1,-1,-1,-1,-1,-1],"loss_changes":[5.3985996E3,8.1512134E2,8.9448413E2,1.5821655E2,2.7216638E2,1.737861E2,1.2537695E2,6.888867E1,5.835675E1,1.0252224E2,1.5073755E2,9.242445E1,7.560788E1,3.0657104E1,2.675879E1,2.338208E1,4.2371338E1,3.721237E1,6.0657867E1,9.806309E1,5.3284702E1,4.620166E1,9.536734E1,5.997823E1,5.0793854E1,2.5188011E1,6.3854614E1,3.454978E1,2.9618347E1,1.0278809E1,2.3241455E1,8.952393E0,2.738443E1,1.7738037E1,3.954956E1,4.079619E1,1.3587677E1,5.1992546E1,2.2711685E1,4.8309387E1,8.404947E1,3.1789938E1,4.3653378E1,1.8497437E1,1.7505447E1,2.5781494E1,1.2271326E2,3.9633514E1,4.5045345E1,3.0444407E1,3.9944336E1,8.102514E0,6.9233704E0,3.969542E1,2.640158E1,0E0,0E0,2.486396E1,3.1962769E1,1.4727051E1,5.7406006E0,2.3039124E1,3.051764E1,0E0,0E0,0E0,0E0,0E0,0E0,0E0,0E0,0E0,0E0,0E0,0E0,0E0,0E0,0E0,0E0,0E0,0E0,0E0,0E0,0E0,0E0,0E0,0E0,0E0,0E0,0E0,0E0,0E0,0E0,0E0,0E0,0E0,0E0,0E0,0E0,0E0,0E0,0E0,0E0,0E0,0E0,0E0,0E0,0E0,0E0,0E0,0E0,0E0,0E0,0E0,0E0,0E0,0E0,0E0,0E0,0E0,0E0,0E0,0E0],"parents":[2147483647,0,0,1,1,2,2,3,3,4,4,5,5,6,6,7,7,8,8,9,9,10,10,11,11,12,12,13,13,14,14,15,15,16,16,17,17,18,18,19,19,20,20,21,21,22,22,23,23,24,24,25,25,26,26,27,27,28,28,29,29,30,30,31,31,32,32,33,33,34,34,35,35,36,36,37,37,38,38,39,39,40,40,41,41,42,42,43,43,44,44,45,45,46,46,47,47,48,48,49,49,50,50,51,51,52,52,53,53,54,54,57,57,58,58,59,59,60,60,61,61,62,62],"right_children":[2,4,6,8,10,12,14,16,18,20,22,24,26,28,30,32,34,36,38,40,42,44,46,48,50,52,54,56,58,60,62,64,66,68,70,72,74,76,78,80,82,84,86,88,90,92,94,96,98,100,102,104,106,108,110,-1,-1,112,114,116,118,120,122,-1,-1,-1,-1,-1,-1,-1,-1,-1,-1,-1,-1,-1,-1,-1,-1,-1,-1,-1,-1,-1,-1,-1,-1,-1,-1,-1,-1,-1,-1,-1,-1,-1,-1,-1,-1,-1,-1,-1,-1,-1,-1,-1,-1,-1,-1,-1,-1,-1,-1,-1,-1,-1,-1,-1,-1,-1,-1,-1,-1],"split_conditions":[9.182115E-3,5.4452214E-3,1.5129637E-2,5.5368607E1,1.1029633E-2,1.2148028E-2,1.9392315E-2,3.7296845E-3,3.678158E-3,4.7822196E-2,5.341545E-1,7.2060525E-1,-5.740609E-3,3.2665025E-2,-2.4325636E-3,-2.6329912E-3,-2.719948E-1,2.129456E-5,3.3805382E-3,7.047645E-3,1.600854E-4,7.677464E1,-1.8264499E-3,3.2236603E1,2.6754898E1,-2.9343802E-2,6.4107557E-3,-3.36775E-3,-1.9695455E-2,-3.9819154E-1,2.4083955E-2,-2.375274E-3,2.2922636E-3,3.1786865E1,9.249977E-1,2.7021974E-1,6.025392E1,-1.0135379E-3,2.0729387E-3,5.3156372E1,6.5762666E-4,1.383742E-2,8.8505185E-1,9.362648E-3,8.205038E-1,-1.5405666E-4,7.295585E-3,-9.563758E-3,2.4299899E-3,3.4151065E-1,2.1041246E-2,2.993997E1,1.1451575E0,5.3585505E-1,8.390287E-2,5.036884E-2,-8.920715E-2,3.836851E1,5.8328677E-3,-6.1581247E-2,6.159804E-3,-3.4808437E-3,8.8232895E1,-4.025654E-2,-7.07851E-2,-2.8285913E-3,-5.550158E-2,-2.7421823E-2,-5.6174766E-2,-4.4421714E-2,-2.2479197E-2,-4.5607295E-2,1.3525394E-2,-4.7809344E-2,-7.552757E-2,-8.2867466E-2,-1.4374509E-2,5.00036E-3,-5.450226E-2,-4.8269402E-2,-1.9114885E-2,1.634123E-2,-1.6039936E-2,-4.4147573E-2,-5.992432E-3,-7.1631237E-3,1.296168E-2,5.943631E-2,-4.824435E-2,-1.6643127E-2,4.928885E-2,-5.0289657E-2,-2.5257615E-2,-2.7394382E-2,-6.237255E-3,3.7990373E-2,-6.0635354E-2,5.8838665E-2,-6.0802894E-3,-6.730701E-2,-6.4668953E-3,3.0686995E-2,8.824109E-3,7.357973E-2,-1.9469477E-2,-7.994986E-2,-1.4433605E-2,-9.385723E-3,1.9000633E-2,2.6442736E-2,4.484944E-2,1.3721135E-2,-6.643932E-2,-8.440051E-2,3.0967727E-2,1.0443167E-2,4.519121E-2,5.0610133E-2,6.26497E-2,1.4792307E-2,3.798696E-2,4.782582E-2,3.1425755E-3],"split_indices":[15,15,15,0,24,15,15,15,15,18,16,17,7,12,19,13,4,7,14,15,5,2,7,0,0,13,6,7,6,18,15,19,24,0,16,3,0,7,22,0,7,12,17,12,3,5,15,13,24,23,12,0,17,17,12,0,0,2,22,13,7,7,2,0,0,0,0,0,0,0,0,0,0,0,0,0,0,0,0,0,0,0,0,0,0,0,0,0,0,0,0,0,0,0,0,0,0,0,0,0,0,0,0,0,0,0,0,0,0,0,0,0,0,0,0,0,0,0,0,0,0,0,0],"split_type":[0,0,0,0,0,0,0,0,0,0,0,0,0,0,0,0,0,0,0,0,0,0,0,0,0,0,0,0,0,0,0,0,0,0,0,0,0,0,0,0,0,0,0,0,0,0,0,0,0,0,0,0,0,0,0,0,0,0,0,0,0,0,0,0,0,0,0,0,0,0,0,0,0,0,0,0,0,0,0,0,0,0,0,0,0,0,0,0,0,0,0,0,0,0,0,0,0,0,0,0,0,0,0,0,0,0,0,0,0,0,0,0,0,0,0,0,0,0,0,0,0,0,0],"sum_hessian":[2.3457834E4,1.1189301E4,1.2268533E4,3.930811E3,7.25849E3,7.0787715E3,5.1897617E3,2.604992E3,1.325819E3,3.302684E3,3.9558064E3,4.2849453E3,2.7938262E3,2.0499033E3,3.1398584E3,9.618769E2,1.6431151E3,3.3968982E2,9.861291E2,1.5488082E3,1.7538757E3,7.238139E2,3.2319924E3,1.0294039E3,3.2555413E3,3.7780293E1,2.7560457E3,1.6634224E1,2.033269E3,1.4964629E3,1.6433955E3,5.094654E2,4.524115E2,7.0066815E2,9.4244696E2,1.2499661E2,2.146932E2,8.0355975E2,1.8256932E2,7.3837146E2,8.1043677E2,3.1487738E2,1.4389983E3,6.8130853E2,4.2505367E1,4.5235074E2,2.7796416E3,8.572301E1,9.436809E2,9.4972046E1,3.160569E3,7.130219E0,3.0650074E1,1.8977382E3,8.583076E2,6.155069E0,1.0479155E1,4.308878E1,1.9901803E3,2.711717E2,1.2252913E3,7.088208E2,9.3457465E2,3.4202023E1,4.752634E2,2.7375805E1,4.2503568E2,6.566124E1,6.3500696E2,6.220068E2,3.204402E2,8.122033E1,4.3776287E1,1.251359E2,8.9557304E1,2.7990694E1,7.755691E2,1.6722754E1,1.6584657E2,1.9587415E2,5.424973E2,3.5758694E2,4.5284985E2,7.027139E1,2.4460599E2,3.561549E2,1.0828434E3,3.001894E0,6.7830664E2,2.830212E1,1.4203246E1,2.7330267E2,1.7904807E2,1.2430348E3,1.5366069E3,1.0747728E1,7.497528E1,2.6473305E1,9.1720764E2,3.0032087E1,6.493996E1,2.2544792E2,2.9351213E3,3.8886356E0,3.2415836E0,2.4066925E1,6.5831494E0,1.3057336E2,1.7671648E3,5.30785E2,3.2752264E2,3.0207375E1,1.2881404E1,4.9769487E0,1.9852034E3,3.810983E1,2.3306186E2,1.070822E3,1.5446912E2,1.3871501E2,5.701058E2,8.93249E2,4.1325676E1],"tree_param":{"num_deleted":"0","num_feature":"28","num_nodes":"123","size_leaf_vector":"1"}},{"base_weights":[4.1756583E-3,-4.1518715E-1,5.065672E-1,-8.0967224E-1,-2.4022283E-1,3.5676974E-1,8.715286E-1,-1.0458151E0,-6.146182E-1,-4.4941643E-1,-1.0300203E-1,1.4073843E-1,4.6885863E-1,1.0516231E0,8.2148385E-1,3.7230217E-1,-1.065677E0,-1.0615221E0,-4.678304E-1,-6.569572E-1,-3.0666685E-1,-2.6527587E-1,5.800678E-2,-1.9122212E-1,2.3820084E-1,3.7717026E-1,6.4884007E-1,-3.170989E-2,1.0611913E0,7.3514605E-1,9.250623E-1,-9.6866643E-1,1.2031312E0,-1.3936304E0,-9.942768E-1,-3.3419657E-1,-1.1507653E0,-7.7694625E-1,-3.1179008E-1,1.0089742E-2,-7.087825E-1,1.7076807E-1,-4.0372553E-1,-5.267049E-1,-8.225508E-2,-2.4325027E-1,1.3613044E-1,4.1913772E-1,-3.4400642E-1,-5.1203555E-1,2.6413393E-1,3.9834818E-1,-3.128768E-1,5.735688E-1,8.857664E-1,6.915777E-1,1.085253E0,6.531671E-1,9.432504E-1,9.753851E-1,5.997604E-1,-0E0,-7.041037E-2,-1.0865953E-2,8.636272E-2,-6.5559032E-3,-7.043872E-2,-6.1184626E-2,-4.5364488E-2,-5.913893E-2,3.2943312E-2,-1.8715788E-2,-6.117473E-2,-3.1204512E-2,-7.092326E-2,-1.2593326E-2,-3.9966248E-2,-4.8631936E-2,1.4767247E-2,-5.6067765E-2,-3.082396E-2,1.9008929E-2,-2.0988042E-2,-7.847473E-3,-2.7583187E-2,-2.7490908E-2,6.733472E-2,-1.623897E-2,1.6927095E-3,-2.1713594E-2,2.4506379E-2,-1.1539046E-2,8.7563675E-3,-3.739783E-2,2.8961826E-2,-8.3827645E-2,-1.4819539E-2,5.0259378E-2,-4.3442246E-2,4.6733143E-3,1.8933386E-2,9.012143E-3,2.2813505E-2,-3.4899946E-2,9.327494E-3,5.6530493E-3,3.158952E-2,3.7886303E-2,6.0993172E-2,4.5726027E-2,-7.6752016E-3,4.5725606E-2,5.7606805E-2,3.394177E-2,-2.7055868E-3,6.674893E-2,4.0498998E-2,4.1428074E-2,5.3230673E-2,-2.8468296E-2,3.3723753E-2],"categories":[],"categories_nodes":[],"categories_segments":[],"categories_sizes":[],"default_left":[0,0,0,0,0,0,0,0,0,0,0,0,0,0,0,0,0,0,0,0,0,0,0,0,0,0,0,0,0,0,0,0,0,0,0,0,0,0,0,0,0,0,0,0,0,0,0,0,0,0,0,0,0,0,0,0,0,0,0,0,0,0,0,0,0,0,0,0,0,0,0,0,0,0,0,0,0,0,0,0,0,0,0,0,0,0,0,0,0,0,0,0,0,0,0,0,0,0,0,0,0,0,0,0,0,0,0,0,0,0,0,0,0,0,0,0,0,0,0,0,0],"id":9,"left_children":[1,3,5,7,9,11,13,15,17,19,21,23,25,27,29,31,33,35,37,39,41,43,45,47,49,51,53,-1,55,57,59,61,63,65,67,69,71,73,75,77,79,81,83,85,87,89,91,93,95,97,99,101,103,105,107,109,111,113,115,117,119,-1,-1,-1,-1,-1,-1,-1,-1,-1,-1,-1,-1,-1,-1,-1,-1,-1,-1,-1,-1,-1,-1,-1,-1,-1,-1,-1,-1,-1,-1,-1,-1,-1,-1,-1,-1,-1,-1,-1,-1,-1,-1,-1,-1,-1,-1,-1,-1,-1,-1,-1,-1,-1,-1,-1,-1,-1,-1,-1,-1],"loss_changes":[4.908718E3,8.757175E2,5.7861035E2,1.7817407E2,2.5225693E2,1.8168524E2,2.5987305E1,5.0364624E1,1.3909186E2,1.02525024E2,1.390196E2,8.3260345E1,8.089673E1,1.1608276E1,2.0126343E1,2.883106E1,3.811682E1,3.310315E1,7.7023834E1,4.935431E1,9.598306E1,1.2642041E2,6.2767124E1,5.447131E1,3.8715622E1,4.8134796E1,2.8486633E1,0E0,4.245178E0,2.1225342E1,1.652655E1,3.9427948E0,1.30002365E1,4.914917E0,2.6401245E1,5.1313766E1,2.521112E1,5.098752E1,3.0672089E1,2.8674145E1,4.8550964E1,4.3310246E1,6.2323517E1,4.7527008E1,4.4105843E1,7.70117E1,3.03521E1,2.2118824E1,2.8177498E1,3.66231E1,3.7340652E1,3.9845337E1,1.9157276E1,3.3588837E1,1.513031E1,8.898396E0,4.972107E0,1.7722992E1,1.7217407E1,1.053833E1,1.3575203E1,0E0,0E0,0E0,0E0,0E0,0E0,0E0,0E0,0E0,0E0,0E0,0E0,0E0,0E0,0E0,0E0,0E0,0E0,0E0,0E0,0E0,0E0,0E0,0E0,0E0,0E0,0E0,0E0,0E0,0E0,0E0,0E0,0E0,0E0,0E0,0E0,0E0,0E0,0E0,0E0,0E0,0E0,0E0,0E0,0E0,0E0,0E0,0E0,0E0,0E0,0E0,0E0,0E0,0E0,0E0,0E0,0E0,0E0,0E0,0E0],"parents":[2147483647,0,0,1,1,2,2,3,3,4,4,5,5,6,6,7,7,8,8,9,9,10,10,11,11,12,12,13,13,14,14,15,15,16,16,17,17,18,18,19,19,20,20,21,21,22,22,23,23,24,24,25,25,26,26,28,28,29,29,30,30,31,31,32,32,33,33,34,34,35,35,36,36,37,37,38,38,39,39,40,40,41,41,42,42,43,43,44,44,45,45,46,46,47,47,48,48,49,49,50,50,51,51,52,52,53,53,54,54,55,55,56,56,57,57,58,58,59,59,60,60],"right_children":[2,4,6,8,10,12,14,16,18,20,22,24,26,28,30,32,34,36,38,40,42,44,46,48,50,52,54,-1,56,58,60,62,64,66,68,70,72,74,76,78,80,82,84,86,88,90,92,94,96,98,100,102,104,106,108,110,112,114,116,118,120,-1,-1,-1,-1,-1,-1,-1,-1,-1,-1,-1,-1,-1,-1,-1,-1,-1,-1,-1,-1,-1,-1,-1,-1,-1,-1,-1,-1,-1,-1,-1,-1,-1,-1,-1,-1,-1,-1,-1,-1,-1,-1,-1,-1,-1,-1,-1,-1,-1,-1,-1,-1,-1,-1,-1,-1,-1,-1,-1,-1],"split_conditions":[1.0124768E-2,5.4452214E-3,1.9392315E-2,5.087242E1,-8.0034125E-4,1.205925E-2,-1.4097005E-2,-7.6670833E-3,3.4980108E-3,7.3382864E-3,1.8110566E-2,7.2060525E-1,6.1260876E-3,2.2113924E-1,2.5695149E-2,-8.363454E-3,6.162393E-3,3.9686832E1,7.009629E-1,-7.449662E-3,1.7610095E-2,7.295585E-3,8.1699085E-1,8.71654E-3,2.7549826E1,7.688003E-2,5.683518E-2,-3.170989E-2,6.133728E-1,1.2454373E-2,6.7899334E-1,1.4338427E-2,2.6643338E-2,6.482982E-3,6.2074625E-1,3.601426E-4,-1.9101622E-2,1.0316389E-2,4.1200425E-3,-3.0943798E-2,6.763026E-1,2.109126E-3,-7.019969E-3,3.3539213E-2,-5.0044614E-1,7.2519905E1,-3.2206044E-2,-5.8056265E-1,-3.0480142E0,-5.946352E-2,3.7516743E-2,-3.9262223E-1,1.6656926E-2,6.1574996E-1,3.712745E-2,3.924175E-2,9.038131E-2,1.1230453E-1,3.226786E-2,7.8457767E-1,1.5537087E-2,-0E0,-7.041037E-2,-1.0865953E-2,8.636272E-2,-6.5559032E-3,-7.043872E-2,-6.1184626E-2,-4.5364488E-2,-5.913893E-2,3.2943312E-2,-1.8715788E-2,-6.117473E-2,-3.1204512E-2,-7.092326E-2,-1.2593326E-2,-3.9966248E-2,-4.8631936E-2,1.4767247E-2,-5.6067765E-2,-3.082396E-2,1.9008929E-2,-2.0988042E-2,-7.847473E-3,-2.7583187E-2,-2.7490908E-2,6.733472E-2,-1.623897E-2,1.6927095E-3,-2.1713594E-2,2.4506379E-2,-1.1539046E-2,8.7563675E-3,-3.739783E-2,2.8961826E-2,-8.3827645E-2,-1.4819539E-2,5.0259378E-2,-4.3442246E-2,4.6733143E-3,1.8933386E-2,9.012143E-3,2.2813505E-2,-3.4899946E-2,9.327494E-3,5.6530493E-3,3.158952E-2,3.7886303E-2,6.0993172E-2,4.5726027E-2,-7.6752016E-3,4.5725606E-2,5.7606805E-2,3.394177E-2,-2.7055868E-3,6.674893E-2,4.0498998E-2,4.1428074E-2,5.3230673E-2,-2.8468296E-2,3.3723753E-2],"split_indices":[15,15,15,0,8,15,19,6,15,15,18,17,5,23,15,6,24,1,16,6,24,15,17,24,0,13,13,0,16,6,23,12,24,23,16,13,13,24,5,9,17,6,10,10,18,0,13,18,3,9,12,18,15,17,10,13,12,13,10,17,19,0,0,0,0,0,0,0,0,0,0,0,0,0,0,0,0,0,0,0,0,0,0,0,0,0,0,0,0,0,0,0,0,0,0,0,0,0,0,0,0,0,0,0,0,0,0,0,0,0,0,0,0,0,0,0,0,0,0,0,0],"split_type":[0,0,0,0,0,0,0,0,0,0,0,0,0,0,0,0,0,0,0,0,0,0,0,0,0,0,0,0,0,0,0,0,0,0,0,0,0,0,0,0,0,0,0,0,0,0,0,0,0,0,0,0,0,0,0,0,0,0,0,0,0,0,0,0,0,0,0,0,0,0,0,0,0,0,0,0,0,0,0,0,0,0,0,0,0,0,0,0,0,0,0,0,0,0,0,0,0,0,0,0,0,0,0,0,0,0,0,0,0,0,0,0,0,0,0,0,0,0,0,0,0],"sum_hessian":[2.3296709E4,1.2697153E4,1.0599555E4,3.8992302E3,8.797923E3,7.517404E3,3.0821514E3,1.7607031E3,2.138527E3,3.4826665E3,5.315257E3,2.570309E3,4.9470947E3,6.637023E2,2.418449E3,2.3726692E1,1.7369764E3,5.263588E2,1.6121683E3,1.4163535E3,2.0663127E3,2.648453E3,2.6668037E3,5.819781E2,1.9883309E3,3.281345E3,1.6657496E3,3.0823355E0,6.6061993E2,1.3260472E3,1.0924017E3,8.783041E0,1.4943651E1,3.059903E2,1.4309862E3,5.865681E1,4.6770203E2,5.3840485E2,1.0737634E3,1.01470985E2,1.3148826E3,3.480977E2,1.7182152E3,1.0887129E3,1.55974E3,5.474062E2,2.1193975E3,1.1550999E2,4.6646814E2,6.5162926E1,1.923168E3,3.1847505E3,9.659446E1,1.2683329E3,3.9741678E2,4.3465427E1,6.1715454E2,9.559925E2,3.7005475E2,9.4298975E2,1.4941206E2,3.1657705E0,5.6172705E0,3.9284284E0,1.1015223E1,4.132704E0,3.0185757E2,3.8824118E2,1.042745E3,3.179776E1,2.6859053E1,4.117241E1,4.265296E2,4.37026E2,1.0137884E2,9.584957E2,1.15267746E2,2.1891247E1,7.957974E1,2.3736299E2,1.0775195E3,2.5785965E2,9.023804E1,6.4602313E2,1.072192E3,1.076406E3,1.2306864E1,5.057853E2,1.0539547E3,4.3515244E2,1.1225376E2,2.01913E2,1.9174845E3,1.3114258E1,1.0239573E2,1.4550644E1,4.5191748E2,1.1794013E1,5.336891E1,7.7480566E2,1.1483623E3,6.7096625E2,2.5137842E3,5.487914E1,4.1715317E1,1.4365027E2,1.1246826E3,2.907525E2,1.0666428E2,3.4795452E1,8.669973E0,1.7994243E2,4.372121E2,9.2323395E2,3.275853E1,9.06967E1,2.7935806E2,3.62459E2,5.805307E2,8.175173E0,1.412369E2],"tree_param":{"num_deleted":"0","num_feature":"28","num_nodes":"121","size_leaf_vector":"1"}},{"base_weights":[2.0746402E-3,-4.6042913E-1,3.1921792E-1,-8.370317E-1,-3.2556713E-1,5.3064507E-3,5.5674464E-1,-9.165174E-1,-4.0243906E-1,-6.8314517E-1,-2.596882E-1,-1.2571688E-1,1.6180262E-1,4.431815E-1,8.2231337E-1,-1.1716117E0,-7.986849E-1,-6.56849E-1,-4.524592E-2,-9.4425356E-1,-3.4016573E-1,-4.0909004E-1,-1.1984863E-1,-4.3966284E-1,-3.0473787E-2,3.666675E-2,4.152498E-1,2.5028867E-1,5.13414E-1,5.250786E-1,8.923433E-1,-1.209823E0,-4.4018564E-1,-1.739283E-1,-8.33948E-1,-2.7357498E-1,-1.0522429E0,-8.7223524E-1,1.9578421E-1,-7.9624426E-1,-1.2207632E0,-4.511226E-1,4.6797267E-1,-5.5274487E-1,-2.3811872E-1,-1.4030272E-1,5.275044E-1,-5.7378596E-1,-1.49152E-1,9.663446E-2,-2.0464613E-1,-3.2363364E-1,1.0498134E-1,2.7129352E-1,6.977427E-1,6.581523E-1,1.5595794E-1,3.583721E-2,5.399857E-1,-2.5937396E-1,6.402193E-1,1.0007955E0,7.8361666E-1,-6.279824E-2,-2.8835708E-2,4.562631E-2,-7.7399544E-2,-7.23948E-2,7.136126E-4,-3.4937132E-2,-5.076437E-2,-4.5894835E-2,7.959681E-3,-7.05228E-2,-2.94006E-2,-0E0,-6.386376E-2,4.1522816E-2,-1.1805265E-2,-4.2003524E-2,3.8237695E-2,-7.265528E-2,-4.898339E-2,-2.6064709E-2,5.8701184E-2,3.568367E-2,-7.4309945E-2,-4.7800656E-2,-2.405583E-2,6.460137E-3,-1.5755635E-2,-1.9351589E-2,-3.0017393E-3,4.163408E-2,-4.7988117E-2,-4.499017E-2,-1.9004473E-2,-1.4030056E-2,5.3911675E-2,-2.2798454E-2,7.0236847E-3,-5.5728655E-2,-7.7142627E-3,-1.2067836E-2,-9.769332E-2,1.1487406E-3,2.3275532E-2,2.3884987E-2,2.846259E-3,4.5494806E-2,1.6112763E-2,3.5226878E-2,-9.0508096E-2,-3.5778673E-3,1.8587459E-2,-3.261139E-2,1.3034542E-2,2.4798071E-2,3.908072E-2,4.0042173E-2,-3.3603583E-2,-7.967814E-2,3.341719E-2,1.5507323E-2,5.123316E-2,4.1142184E-2,1.9421663E-2],"categories":[],"categories_nodes":[],"categories_segments":[],"categories_sizes":[],"default_left":[0,0,0,0,0,0,0,0,0,0,0,0,0,0,0,0,0,0,0,0,0,0,0,0,0,0,0,0,0,0,0,0,0,0,0,0,0,0,0,0,0,0,0,0,0,0,0,0,0,0,0,0,0,0,0,0,0,0,0,0,0,0,0,0,0,0,0,0,0,0,0,0,0,0,0,0,0,0,0,0,0,0,0,0,0,0,0,0,0,0,0,0,0,0,0,0,0,0,0,0,0,0,0,0,0,0,0,0,0,0,0,0,0,0,0,0,0,0,0,0,0,0,0,0,0,0,0],"id":10,"left_children":[1,3,5,7,9,11,13,15,17,19,21,23,25,27,29,31,33,35,37,39,41,43,45,47,49,51,53,55,57,59,61,63,65,67,69,71,73,75,77,79,81,83,85,87,89,91,93,95,97,99,101,103,105,107,109,111,113,115,117,119,121,123,125,-1,-1,-1,-1,-1,-1,-1,-1,-1,-1,-1,-1,-1,-1,-1,-1,-1,-1,-1,-1,-1,-1,-1,-1,-1,-1,-1,-1,-1,-1,-1,-1,-1,-1,-1,-1,-1,-1,-1,-1,-1,-1,-1,-1,-1,-1,-1,-1,-1,-1,-1,-1,-1,-1,-1,-1,-1,-1,-1,-1,-1,-1,-1,-1],"loss_changes":[3.401708E3,4.7825745E2,1.0255863E3,8.4838745E1,1.630373E2,1.21595665E2,2.3518433E2,6.119104E1,3.4795895E1,9.5686035E1,1.2233115E2,9.619996E1,8.55078E1,7.385132E1,4.7598267E1,1.7086731E1,3.1091125E1,3.3174347E1,3.298219E1,2.3039734E1,4.2245453E1,6.912729E1,4.0071465E1,2.875624E1,5.4913273E1,4.4535854E1,3.561136E1,5.600727E1,5.071997E1,4.1055824E1,2.0652832E1,1.6645142E1,5.4158806E1,1.9677261E1,3.1844666E1,3.2965214E1,1.643798E1,1.352524E1,3.5166523E1,2.819954E1,9.128876E0,4.742006E1,2.7826649E1,4.3269226E1,3.6849503E1,5.805579E1,4.268782E1,3.1301453E1,3.8505543E1,3.4574215E1,4.717414E1,3.705432E1,4.4847443E1,2.5982353E1,2.294046E1,3.2164635E1,5.8863014E1,3.308254E1,3.9482056E1,2.5776936E1,2.5340729E1,1.45448E1,1.3840881E1,0E0,0E0,0E0,0E0,0E0,0E0,0E0,0E0,0E0,0E0,0E0,0E0,0E0,0E0,0E0,0E0,0E0,0E0,0E0,0E0,0E0,0E0,0E0,0E0,0E0,0E0,0E0,0E0,0E0,0E0,0E0,0E0,0E0,0E0,0E0,0E0,0E0,0E0,0E0,0E0,0E0,0E0,0E0,0E0,0E0,0E0,0E0,0E0,0E0,0E0,0E0,0E0,0E0,0E0,0E0,0E0,0E0,0E0,0E0,0E0,0E0,0E0,0E0,0E0],"parents":[2147483647,0,0,1,1,2,2,3,3,4,4,5,5,6,6,7,7,8,8,9,9,10,10,11,11,12,12,13,13,14,14,15,15,16,16,17,17,18,18,19,19,20,20,21,21,22,22,23,23,24,24,25,25,26,26,27,27,28,28,29,29,30,30,31,31,32,32,33,33,34,34,35,35,36,36,37,37,38,38,39,39,40,40,41,41,42,42,43,43,44,44,45,45,46,46,47,47,48,48,49,49,50,50,51,51,52,52,53,53,54,54,55,55,56,56,57,57,58,58,59,59,60,60,61,61,62,62],"right_children":[2,4,6,8,10,12,14,16,18,20,22,24,26,28,30,32,34,36,38,40,42,44,46,48,50,52,54,56,58,60,62,64,66,68,70,72,74,76,78,80,82,84,86,88,90,92,94,96,98,100,102,104,106,108,110,112,114,116,118,120,122,124,126,-1,-1,-1,-1,-1,-1,-1,-1,-1,-1,-1,-1,-1,-1,-1,-1,-1,-1,-1,-1,-1,-1,-1,-1,-1,-1,-1,-1,-1,-1,-1,-1,-1,-1,-1,-1,-1,-1,-1,-1,-1,-1,-1,-1,-1,-1,-1,-1,-1,-1,-1,-1,-1,-1,-1,-1,-1,-1,-1,-1,-1,-1,-1,-1],"split_conditions":[7.2383825E-3,3.476438E-3,7.1285013E-3,7.8211235E1,2.4136372E-1,6.448713E-3,1.4047244E-2,1.8305206E-3,2.0844085E-2,4.190546E-3,5.259563E-3,3.8342716E-3,1.239596E-2,4.713461E-2,1.6185714E-2,2.704732E-3,-6.180991E-3,8.304867E1,6.334548E-1,1.0813648E0,3.8050774E1,3.2496338E-3,1.1375213E-2,5.537509E1,-4.0558376E-3,-2.8685808E-2,1.9769866E-2,-1.6723506E-2,8.213664E-3,-1.8003952E-2,-1.816117E-3,7.87908E1,1.4854207E-3,-3.3797845E-2,1.0713139E-2,-7.6732814E-4,8.6289644E-1,5.971211E-3,-4.940879E-1,1.072759E0,1.3438605E0,8.324767E-2,7.754435E-3,6.9320314E-3,1.07071824E-1,6.0240036E-1,7.688003E-2,1.2342298E0,1.2112904E-2,6.7600952E-3,6.334548E-1,1.1828181E-2,2.0933323E-2,6.545226E1,4.8023626E-2,1.2107372E-2,5.5790283E-3,-1.1703933E-2,1.4041976E-2,-9.240011E-2,7.741446E-3,4.6952888E-1,8.605281E1,-6.279824E-2,-2.8835708E-2,4.562631E-2,-7.7399544E-2,-7.23948E-2,7.136126E-4,-3.4937132E-2,-5.076437E-2,-4.5894835E-2,7.959681E-3,-7.05228E-2,-2.94006E-2,-0E0,-6.386376E-2,4.1522816E-2,-1.1805265E-2,-4.2003524E-2,3.8237695E-2,-7.265528E-2,-4.898339E-2,-2.6064709E-2,5.8701184E-2,3.568367E-2,-7.4309945E-2,-4.7800656E-2,-2.405583E-2,6.460137E-3,-1.5755635E-2,-1.9351589E-2,-3.0017393E-3,4.163408E-2,-4.7988117E-2,-4.499017E-2,-1.9004473E-2,-1.4030056E-2,5.3911675E-2,-2.2798454E-2,7.0236847E-3,-5.5728655E-2,-7.7142627E-3,-1.2067836E-2,-9.769332E-2,1.1487406E-3,2.3275532E-2,2.3884987E-2,2.846259E-3,4.5494806E-2,1.6112763E-2,3.5226878E-2,-9.0508096E-2,-3.5778673E-3,1.8587459E-2,-3.261139E-2,1.3034542E-2,2.4798071E-2,3.908072E-2,4.0042173E-2,-3.3603583E-2,-7.967814E-2,3.341719E-2,1.5507323E-2,5.123316E-2,4.1142184E-2,1.9421663E-2],"split_indices":[22,22,14,2,11,9,14,14,12,14,22,14,22,12,22,6,6,2,17,17,2,8,14,1,10,13,20,10,22,5,19,1,14,13,24,10,11,13,18,17,16,24,10,24,23,16,13,17,13,24,17,5,10,2,12,14,10,8,6,9,22,16,2,0,0,0,0,0,0,0,0,0,0,0,0,0,0,0,0,0,0,0,0,0,0,0,0,0,0,0,0,0,0,0,0,0,0,0,0,0,0,0,0,0,0,0,0,0,0,0,0,0,0,0,0,0,0,0,0,0,0,0,0,0,0,0,0],"split_type":[0,0,0,0,0,0,0,0,0,0,0,0,0,0,0,0,0,0,0,0,0,0,0,0,0,0,0,0,0,0,0,0,0,0,0,0,0,0,0,0,0,0,0,0,0,0,0,0,0,0,0,0,0,0,0,0,0,0,0,0,0,0,0,0,0,0,0,0,0,0,0,0,0,0,0,0,0,0,0,0,0,0,0,0,0,0,0,0,0,0,0,0,0,0,0,0,0,0,0,0,0,0,0,0,0,0,0,0,0,0,0,0,0,0,0,0,0,0,0,0,0,0,0,0,0,0,0],"sum_hessian":[2.3189842E4,9.432293E3,1.375755E4,2.4847383E3,6.9475547E3,5.92728E3,7.8302695E3,2.0986433E3,3.8609494E2,1.078221E3,5.8693335E3,3.2245723E3,2.7027078E3,5.488021E3,2.3422488E3,6.5893524E2,1.4397081E3,2.2418268E2,1.6191228E2,6.103522E2,4.6786874E2,2.834988E3,3.0343457E3,7.484897E2,2.4760825E3,1.8114486E3,8.9125903E2,1.4679625E3,4.0200583E3,4.496009E2,1.8926478E3,6.249489E2,3.3986355E1,7.799429E1,1.3617139E3,1.15337265E2,1.08845406E2,3.641744E1,1.25494835E2,4.012566E2,2.0909558E2,4.123182E2,5.5550545E1,1.5377612E3,1.2972267E3,2.9429155E3,9.143016E1,5.102303E2,2.3825937E2,1.4300377E3,1.0460448E3,2.8695462E2,1.524494E3,5.9286816E2,2.983908E2,2.736195E2,1.194343E3,2.129968E2,3.8070618E3,5.6829144E1,3.9277176E2,9.4111E2,9.5153784E2,5.808428E2,4.410608E1,1.5177923E1,1.880843E1,9.519339E0,6.847495E1,7.8444653E2,5.772673E2,4.6355644E1,6.898162E1,5.9679657E1,4.9165752E1,1.1677957E1,2.4739481E1,5.0912518E1,7.458231E1,3.9105945E2,1.0197144E1,1.0286461E2,1.0623098E2,3.961978E2,1.612037E1,5.0137363E1,5.413182E0,2.2902412E2,1.3087372E3,2.2354932E2,1.0736774E3,7.199301E2,2.2229854E3,7.650762E1,1.4922538E1,1.878412E2,3.2238907E2,2.1627568E2,2.198369E1,1.0358014E2,1.3264576E3,5.3229366E1,9.9281537E2,2.7455286E2,1.2401773E1,1.2439857E3,2.8050827E2,3.0022928E2,2.9263892E2,1.8890382E2,1.09487E2,2.6947266E2,4.1468725E0,5.805757E2,6.137674E2,5.1445686E1,1.615511E2,3.2246572E3,5.824044E2,1.5320036E1,4.150911E1,3.970575E0,3.8880118E2,3.260418E1,9.085058E2,8.6347894E2,8.805887E1],"tree_param":{"num_deleted":"0","num_feature":"28","num_nodes":"127","size_leaf_vector":"1"}},{"base_weights":[-4.2786812E-3,-4.3367136E-1,3.9543742E-1,-7.806983E-1,-2.629513E-1,1.97767E-1,6.825966E-1,-1.0921693E0,-6.5215766E-1,-4.752325E-1,-1.414805E-1,6.8743184E-2,3.3572316E-1,5.4400223E-1,8.359311E-1,-1.1418942E0,-3.3682323E-1,-8.8460726E-1,-4.6489903E-1,-7.781965E-1,-3.6857846E-1,-3.350568E-1,4.9696963E-2,-4.0838197E-1,1.1648084E-1,-2.7870074E-1,3.73995E-1,-3.6828163E-1,5.551297E-1,9.7731227E-1,7.6484805E-1,-1.381749E0,-1.0543623E0,1.3837366E0,-8.232084E-1,-1.2013135E0,-8.053988E-1,-3.6770093E-1,-1.1524802E0,5.614156E-1,-8.066033E-1,1.13246426E-1,-4.6727845E-1,-5.358581E-1,-1.8361922E-1,-2.728078E-1,1.2887949E-1,-1.5376961E0,-2.9965553E-1,-5.297386E-1,1.4990942E-1,2.37757E-1,-8.1836236E-1,2.6410908E-1,4.9560708E-1,-1.2641677E0,6.141222E-1,-7.339658E-1,5.615077E-1,9.8654735E-1,-3.9072838E-2,7.1777797E-1,9.9980307E-1,-7.160902E-2,-5.3958822E-2,-6.8660274E-2,-4.7276795E-2,1.0238059E-1,-1.4534714E-2,-5.532517E-2,1.8652542E-2,-6.8001E-2,-3.4424838E-2,-4.140232E-2,1.5273436E-2,-2.9009977E-2,-8.613565E-3,-6.5680094E-2,2.675492E-2,7.824718E-2,-1.0394128E-2,-3.764687E-2,-7.2882004E-2,-1.2855852E-2,1.8180883E-2,-3.1723425E-2,-1.1968491E-2,-2.368031E-2,-5.566665E-2,-5.4861624E-2,-6.642482E-3,-2.5337834E-2,-6.2228803E-4,7.401246E-3,-2.7394569E-2,-8.4862165E-2,-1.1344989E-3,-4.0752243E-2,-5.698261E-3,3.555585E-2,-3.4997966E-2,-3.7035413E-2,8.262537E-3,-7.947695E-2,1.951397E-2,2.2107303E-2,-5.3224873E-2,1.8885287E-2,-1.5507763E-3,-3.4556273E-2,2.553964E-2,1.8032527E-2,-9.0482645E-2,4.9333334E-2,-1.8355621E-2,-6.3948475E-2,1.993612E-2,4.5358527E-2,2.6858022E-2,-1.1879466E-2,4.9739834E-2,2.822282E-2,4.2093102E-2,2.0142735E-3,5.2026995E-2],"categories":[],"categories_nodes":[],"categories_segments":[],"categories_sizes":[],"default_left":[0,0,0,0,0,0,0,0,0,0,0,0,0,0,0,0,0,0,0,0,0,0,0,0,0,0,0,0,0,0,0,0,0,0,0,0,0,0,0,0,0,0,0,0,0,0,0,0,0,0,0,0,0,0,0,0,0,0,0,0,0,0,0,0,0,0,0,0,0,0,0,0,0,0,0,0,0,0,0,0,0,0,0,0,0,0,0,0,0,0,0,0,0,0,0,0,0,0,0,0,0,0,0,0,0,0,0,0,0,0,0,0,0,0,0,0,0,0,0,0,0,0,0,0,0],"id":11,"left_children":[1,3,5,7,9,11,13,15,17,19,21,23,25,27,29,31,33,35,37,39,41,43,45,47,49,51,53,55,57,59,61,63,65,67,69,71,73,75,77,79,81,83,85,87,89,91,93,95,97,99,101,103,105,107,109,111,113,115,117,119,-1,121,123,-1,-1,-1,-1,-1,-1,-1,-1,-1,-1,-1,-1,-1,-1,-1,-1,-1,-1,-1,-1,-1,-1,-1,-1,-1,-1,-1,-1,-1,-1,-1,-1,-1,-1,-1,-1,-1,-1,-1,-1,-1,-1,-1,-1,-1,-1,-1,-1,-1,-1,-1,-1,-1,-1,-1,-1,-1,-1,-1,-1,-1,-1],"loss_changes":[3.9623582E3,6.586841E2,6.7805225E2,1.4529419E2,1.9205847E2,1.2585895E2,1.0241162E2,3.903064E1,1.1210986E2,8.684143E1,1.7592833E2,8.334214E1,8.0600494E1,2.63266E1,2.1595093E1,1.8362427E1,5.7824776E1,2.7077393E1,9.5291504E1,2.7387756E1,9.584625E1,7.134943E1,6.0974487E1,3.944266E1,7.1866486E1,5.6341904E1,4.2542664E1,2.834784E1,2.1161255E1,1.33289795E1,1.5499451E1,1.2143555E0,2.3214355E1,1.8313086E1,1.905365E1,1.6625671E1,2.3926453E1,5.2135223E1,4.9405655E1,1.2471901E1,2.1930237E1,3.1839699E1,6.3037933E1,3.510605E1,6.1815937E1,2.8364777E1,2.4760292E1,6.0028763E0,2.8623636E1,3.499829E1,4.3141235E1,2.8645966E1,3.1404808E1,5.7069237E1,2.7762909E1,1.6253891E1,6.2184134E0,8.681234E0,2.0020447E1,8.325562E0,0E0,2.3394836E1,9.321701E0,0E0,0E0,0E0,0E0,0E0,0E0,0E0,0E0,0E0,0E0,0E0,0E0,0E0,0E0,0E0,0E0,0E0,0E0,0E0,0E0,0E0,0E0,0E0,0E0,0E0,0E0,0E0,0E0,0E0,0E0,0E0,0E0,0E0,0E0,0E0,0E0,0E0,0E0,0E0,0E0,0E0,0E0,0E0,0E0,0E0,0E0,0E0,0E0,0E0,0E0,0E0,0E0,0E0,0E0,0E0,0E0,0E0,0E0,0E0,0E0,0E0,0E0],"parents":[2147483647,0,0,1,1,2,2,3,3,4,4,5,5,6,6,7,7,8,8,9,9,10,10,11,11,12,12,13,13,14,14,15,15,16,16,17,17,18,18,19,19,20,20,21,21,22,22,23,23,24,24,25,25,26,26,27,27,28,28,29,29,30,30,31,31,32,32,33,33,34,34,35,35,36,36,37,37,38,38,39,39,40,40,41,41,42,42,43,43,44,44,45,45,46,46,47,47,48,48,49,49,50,50,51,51,52,52,53,53,54,54,55,55,56,56,57,57,58,58,59,59,61,61,62,62],"right_children":[2,4,6,8,10,12,14,16,18,20,22,24,26,28,30,32,34,36,38,40,42,44,46,48,50,52,54,56,58,60,62,64,66,68,70,72,74,76,78,80,82,84,86,88,90,92,94,96,98,100,102,104,106,108,110,112,114,116,118,120,-1,122,124,-1,-1,-1,-1,-1,-1,-1,-1,-1,-1,-1,-1,-1,-1,-1,-1,-1,-1,-1,-1,-1,-1,-1,-1,-1,-1,-1,-1,-1,-1,-1,-1,-1,-1,-1,-1,-1,-1,-1,-1,-1,-1,-1,-1,-1,-1,-1,-1,-1,-1,-1,-1,-1,-1,-1,-1,-1,-1,-1,-1,-1,-1],"split_conditions":[9.233278E-3,5.368055E-3,1.5338162E-2,3.5637403E-3,4.3206856E-1,1.1710439E-2,2.170525E-2,2.6381114E-3,5.3016824E-1,6.4531434E-1,1.8110566E-2,5.6383616E-1,-4.066709E0,3.4865793E-2,3.2205624E1,6.206449E-3,1.3522521E-3,4.0362123E-3,3.5060956E-3,5.4053334E-3,-1.0293578E-2,7.047645E-3,8.2011455E-1,1.1007732E-1,-2.3271695E-2,9.481319E-3,5.5790283E-3,2.1507349E-2,2.6541567E-1,1.5145144E0,4.1217536E-2,7.0578705E1,-1.7322969E-3,1.1190791E-2,3.4454417E-1,1.7247915E-2,5.447328E-3,5.5007663E-2,8.033645E-3,1.3005983E-2,1.0243897E0,7.576972E-3,3.351032E1,2.3717938E-2,-5.0858915E-2,7.661963E1,3.531103E0,1.02971485E-2,-5.2462494E-1,-2.3217617E-2,-1.2336361E-2,5.9297657E-1,1.1789058E-2,-3.6863477E-3,-7.81387E-1,6.441953E-3,9.971879E-1,7.411241E-1,7.7027143E-3,-7.696137E-1,-3.9072838E-2,-1.8716326E-3,4.444996E-1,-7.160902E-2,-5.3958822E-2,-6.8660274E-2,-4.7276795E-2,1.0238059E-1,-1.4534714E-2,-5.532517E-2,1.8652542E-2,-6.8001E-2,-3.4424838E-2,-4.140232E-2,1.5273436E-2,-2.9009977E-2,-8.613565E-3,-6.5680094E-2,2.675492E-2,7.824718E-2,-1.0394128E-2,-3.764687E-2,-7.2882004E-2,-1.2855852E-2,1.8180883E-2,-3.1723425E-2,-1.1968491E-2,-2.368031E-2,-5.566665E-2,-5.4861624E-2,-6.642482E-3,-2.5337834E-2,-6.2228803E-4,7.401246E-3,-2.7394569E-2,-8.4862165E-2,-1.1344989E-3,-4.0752243E-2,-5.698261E-3,3.555585E-2,-3.4997966E-2,-3.7035413E-2,8.262537E-3,-7.947695E-2,1.951397E-2,2.2107303E-2,-5.3224873E-2,1.8885287E-2,-1.5507763E-3,-3.4556273E-2,2.553964E-2,1.8032527E-2,-9.0482645E-2,4.9333334E-2,-1.8355621E-2,-6.3948475E-2,1.993612E-2,4.5358527E-2,2.6858022E-2,-1.1879466E-2,4.9739834E-2,2.822282E-2,4.2093102E-2,2.0142735E-3,5.2026995E-2],"split_indices":[15,15,15,15,11,15,15,6,11,16,18,17,4,12,1,12,14,15,14,15,10,15,17,11,8,25,10,10,16,3,15,2,10,9,3,4,14,18,27,12,17,15,2,13,13,1,4,22,18,10,6,17,13,10,18,14,16,23,14,18,0,27,16,0,0,0,0,0,0,0,0,0,0,0,0,0,0,0,0,0,0,0,0,0,0,0,0,0,0,0,0,0,0,0,0,0,0,0,0,0,0,0,0,0,0,0,0,0,0,0,0,0,0,0,0,0,0,0,0,0,0,0,0,0,0],"split_type":[0,0,0,0,0,0,0,0,0,0,0,0,0,0,0,0,0,0,0,0,0,0,0,0,0,0,0,0,0,0,0,0,0,0,0,0,0,0,0,0,0,0,0,0,0,0,0,0,0,0,0,0,0,0,0,0,0,0,0,0,0,0,0,0,0,0,0,0,0,0,0,0,0,0,0,0,0,0,0,0,0,0,0,0,0,0,0,0,0,0,0,0,0,0,0,0,0,0,0,0,0,0,0,0,0,0,0,0,0,0,0,0,0,0,0,0,0,0,0,0,0,0,0,0,0],"sum_hessian":[2.3083824E4,1.1129351E4,1.1954474E4,3.6676082E3,7.4617427E3,7.0825337E3,4.87194E3,1.068092E3,2.5995164E3,2.7131829E3,4.74856E3,3.662394E3,3.42014E3,2.5630688E3,2.3088708E3,1.0010205E3,6.707147E1,1.1569574E3,1.442559E3,7.035834E2,2.0095994E3,2.3604026E3,2.3881572E3,3.3146463E2,3.3309294E3,1.99411E2,3.220729E3,2.9957605E1,2.5331113E3,7.65849E2,1.543022E3,2.621578E2,7.3886273E2,1.4148616E1,5.2922855E1,2.2736887E2,9.295885E2,1.2658739E3,1.7668498E2,1.3854745E1,6.8972864E2,3.4078284E2,1.6688165E3,1.0122939E3,1.3481086E3,4.6903824E2,1.919119E3,2.7551607E1,3.0391302E2,1.6236626E2,3.168563E3,1.0170854E2,9.7702446E1,1.6957609E3,1.5249681E3,1.57849455E1,1.417266E1,1.1523759E1,2.5215874E3,7.625682E2,3.2808056E0,1.2906423E3,2.5237962E2,2.2008856E2,4.206923E1,1.8388829E2,5.549744E2,1.0185878E1,3.9627385E0,4.3188152E1,9.734705E0,1.7162677E2,5.5742104E1,9.1170593E2,1.7882536E1,6.0428394E2,6.6158997E2,1.6175894E2,1.4926048E1,5.8453474E0,8.0093975E0,6.3990485E2,4.982377E1,1.3663722E2,2.0414561E2,9.6034534E2,7.0847125E2,9.1621204E2,9.6081825E1,6.936711E1,1.2787416E3,2.4554053E2,2.2349773E2,1.8678002E3,5.1318848E1,2.4519144E1,3.0324616E0,7.888454E1,2.2502849E2,1.8848879E1,1.4351738E2,5.230326E1,3.1162598E3,6.857099E0,9.485145E1,1.54993515E1,8.2203094E1,1.2254762E3,4.7028458E2,1.82889E1,1.5066792E3,3.822179E0,1.1962767E1,1.0637831E1,3.5348291E0,7.991065E0,3.5326934E0,1.6218742E2,2.3594001E3,4.512611E0,7.580556E2,5.815912E2,7.0905115E2,1.0859398E1,2.4152023E2],"tree_param":{"num_deleted":"0","num_feature":"28","num_nodes":"125","size_leaf_vector":"1"}},{"base_weights":[1.3786422E-3,-4.2103115E-1,2.906086E-1,-7.17656E-1,-2.38895E-1,1.5029575E-2,4.996543E-1,-8.3705825E-1,-4.8592207E-1,-6.090425E-1,-1.4062123E-1,-1.6109002E-1,1.22596115E-1,3.7346187E-1,7.106206E-1,-8.844467E-1,-3.4973207E-1,-5.481534E-1,1.2875362E-1,-5.3535134E-1,-1.1026446E0,-4.65031E-1,-1.0367325E-1,-5.8909273E-1,-6.0427193E-2,4.162363E-2,2.8889608E-1,2.0583376E-1,4.665138E-1,6.3061863E-1,9.382938E-1,-1.2733184E0,-8.3184713E-1,-7.7130064E-2,-2.2532442E-1,-5.0083584E-1,-1.2318947E0,-2.946112E-1,7.497709E-1,-3.6733207E-1,-7.567373E-1,-0E0,-1.151941E0,-3.5906488E-1,-1.105066E0,-2.553199E-1,-2.1063812E-2,-7.163096E-1,1.12268455E-1,-1.5091842E-1,2.691293E-1,-3.1394422E-1,8.853457E-2,2.1056706E-1,6.927502E-1,-1.6457278E-1,2.592042E-1,2.7404803E-1,5.3566575E-1,3.3263218E-1,7.096193E-1,1.1380885E0,8.519129E-1,-6.713494E-2,6.1155707E-2,-5.430907E-2,-3.7573714E-2,3.0850714E-2,-1.9490412E-2,-2.8082779E-2,1.6617844E-2,-6.723815E-2,-0E0,1.17206415E-2,-6.230216E-2,8.728723E-3,6.402955E-2,-5.7521373E-2,-1.3810264E-2,-4.026005E-2,2.7066141E-2,5.9324242E-2,-5.3374965E-2,2.0967636E-3,-5.997327E-2,-4.9492072E-2,-1.4000866E-2,3.5624367E-3,-7.139E-2,-2.8917251E-2,-9.963184E-3,9.913896E-3,-4.826061E-3,-4.557925E-2,-1.5655069E-2,2.0705294E-2,-4.5997556E-2,-3.0692307E-2,-5.4349867E-3,-8.268257E-4,3.5536326E-2,-4.774228E-2,-5.0619617E-3,5.494015E-3,-3.9359774E-2,3.425584E-3,2.655075E-2,4.3434393E-2,-7.524088E-3,1.9611927E-2,-4.1351907E-2,1.6520929E-2,-4.2794673E-3,1.0148586E-2,3.1044772E-2,1.401146E-2,2.893108E-2,-3.9230224E-2,2.0539531E-2,3.900446E-2,2.7650744E-2,-0E0,5.7750907E-2,1.3806722E-2,4.4083606E-2],"categories":[],"categories_nodes":[],"categories_segments":[],"categories_sizes":[],"default_left":[0,0,0,0,0,0,0,0,0,0,0,0,0,0,0,0,0,0,0,0,0,0,0,0,0,0,0,0,0,0,0,0,0,0,0,0,0,0,0,0,0,0,0,0,0,0,0,0,0,0,0,0,0,0,0,0,0,0,0,0,0,0,0,0,0,0,0,0,0,0,0,0,0,0,0,0,0,0,0,0,0,0,0,0,0,0,0,0,0,0,0,0,0,0,0,0,0,0,0,0,0,0,0,0,0,0,0,0,0,0,0,0,0,0,0,0,0,0,0,0,0,0,0,0,0],"id":12,"left_children":[1,3,5,7,9,11,13,15,17,19,21,23,25,27,29,31,33,35,37,39,41,43,45,47,49,51,53,55,57,59,61,63,65,-1,67,69,71,73,75,77,79,81,83,85,87,89,91,93,95,97,99,101,103,105,107,109,111,113,115,117,119,121,123,-1,-1,-1,-1,-1,-1,-1,-1,-1,-1,-1,-1,-1,-1,-1,-1,-1,-1,-1,-1,-1,-1,-1,-1,-1,-1,-1,-1,-1,-1,-1,-1,-1,-1,-1,-1,-1,-1,-1,-1,-1,-1,-1,-1,-1,-1,-1,-1,-1,-1,-1,-1,-1,-1,-1,-1,-1,-1,-1,-1,-1,-1],"loss_changes":[2.8092717E3,5.0422168E2,7.860746E2,9.725769E1,2.1024176E2,1.115828E2,2.0580188E2,5.316797E1,4.6648926E1,4.2743774E1,5.45588E1,9.580231E1,4.9093143E1,